%YAML:1.0
my_svm: !!opencv-ml-svm
   svm_type: C_SVC
   kernel: { type:LINEAR }
   C: 5.0000000000000000e-01
   term_criteria: { epsilon:1.1920928955078125e-07, iterations:1000 }
   var_all: 12312
   var_count: 12312
   class_count: 2
   class_labels: !!opencv-matrix
      rows: 1
      cols: 2
      dt: i
      data: [ 0, 1 ]
   sv_total: 1
   support_vectors:
      - [ -4.17452902e-01, 2.73752138e-02, -7.59887174e-02,
          1.13792174e-01, -2.27093861e-01, 1.61395371e-01,
          5.19558005e-02, 6.16879538e-02, -5.11361480e-01,
          -2.47726426e-01, 1.73959687e-01, -6.78867996e-02,
          6.73827454e-02, 1.52912185e-01, 7.50394091e-02, 4.85540070e-02,
          1.30404666e-01, 4.49685603e-02, 5.97359538e-01, 1.71856448e-01,
          -3.20667736e-02, 6.08924814e-02, 1.08383849e-01,
          5.30269742e-02, 2.34240681e-01, 2.97068864e-01, 2.22910658e-01,
          -2.05183938e-01, -1.45109832e-01, 2.00178146e-01,
          -1.03910044e-02, -1.14024289e-01, -2.13905662e-01,
          -1.07614465e-01, -6.04146682e-02, -1.90824017e-01,
          -9.81505662e-02, -4.15713564e-02, -2.00258970e-01,
          2.55494956e-02, -8.93818662e-02, 8.56727138e-02,
          3.27047631e-02, -3.59929241e-02, -2.06283495e-01,
          5.35931140e-02, -1.13850869e-01, 2.44866293e-02,
          -3.34596932e-02, 1.30795594e-02, 2.90964767e-02,
          4.93882075e-02, 2.79674418e-02, -4.64756154e-02,
          -1.32597387e-01, -1.93534896e-01, -1.60110787e-01,
          -6.81303442e-02, -1.91986069e-01, -4.58687544e-02,
          -1.22967146e-01, -2.98144639e-01, -2.33441427e-01,
          -2.01855712e-02, -8.13613236e-02, -4.08674926e-02,
          -3.05491816e-02, 2.10972372e-02, -1.16054118e-02,
          7.10756481e-02, 9.81581509e-02, -3.17123383e-01,
          7.66149685e-02, 6.59536242e-01, 4.40880418e-01, 8.19089543e-03,
          1.93146333e-01, -3.78104066e-03, -1.25306677e-02,
          -1.35337934e-01, 4.85860966e-02, -2.76854277e-01,
          2.65526384e-01, 1.56334229e-02, 1.35857642e-01, 6.85691014e-02,
          8.90640691e-02, 4.12119105e-02, 9.99170095e-02, 1.17288553e-04,
          8.44922140e-02, 2.84621958e-03, -3.37196253e-02,
          8.79601091e-02, 1.67967919e-02, 2.84967702e-02, 1.18278749e-01,
          1.64512575e-01, -3.69266607e-02, 2.69755095e-01,
          -1.56485066e-02, -4.09752965e-01, -4.44785833e-01,
          -2.02924218e-02, 4.99649271e-02, 1.46332189e-01,
          2.45601207e-01, 3.52123260e-01, -1.98674947e-02,
          3.12047955e-02, -1.44132659e-01, 1.06126286e-01,
          -1.51177108e-01, 9.88683403e-02, 4.36013080e-02,
          -2.03138534e-02, -1.54097125e-01, -2.83076912e-01,
          -2.16808870e-01, 7.13840267e-03, -5.13016917e-02,
          -1.17282696e-01, 4.71996255e-02, 2.41320990e-02,
          -4.20848429e-02, -3.97748165e-02, -2.79390752e-01,
          -7.59423571e-03, -7.55101591e-02, -3.20545793e-01,
          -1.14334613e-01, -5.19188643e-02, 1.54852852e-01,
          1.37734547e-01, -3.61188233e-01, 4.00044322e-02,
          -8.02741721e-02, -1.10024296e-01, -1.18413130e-02,
          5.66822179e-02, 7.15430081e-02, 1.18350938e-01, 1.28362060e-01,
          -2.24126786e-01, -2.18820021e-01, 2.51103103e-01,
          -3.77549641e-02, -6.20115586e-02, 4.65832315e-02,
          9.76228528e-03, -1.45228319e-02, -1.77112967e-01,
          -9.51689705e-02, 2.94553995e-01, 1.83598757e-01,
          -6.93701282e-02, -4.71450435e-03, -5.27894609e-02,
          -1.16140455e-01, 1.18916295e-01, -9.70325246e-03,
          -1.40533447e-01, 2.39649042e-01, 7.65559673e-02,
          -2.03654058e-02, 1.38513416e-01, 9.42037553e-02,
          8.76754969e-02, 1.36067525e-01, 1.56525895e-01, 4.40829992e-02,
          1.64032638e-01, -1.96610317e-02, -3.81265640e-01,
          -4.03697312e-01, 2.13951487e-02, 2.82179732e-02,
          1.15024514e-01, 2.13001221e-01, 1.87290967e-01, 1.82682216e-01,
          -1.87878743e-01, -6.34013176e-01, -7.95724869e-01,
          -3.21962088e-01, -3.00676227e-01, 1.28110379e-01,
          -6.26172349e-02, 3.57838064e-01, -1.58837751e-01,
          -1.04795501e-01, 1.48766324e-01, 7.46884793e-02,
          1.56596735e-01, 1.46578863e-01, 1.03957713e-01,
          -3.39370593e-02, 9.05385986e-02, -2.73006976e-01,
          1.40536623e-02, -2.17473190e-02, -1.03060827e-01,
          4.48898748e-02, 1.39428601e-01, 1.61336333e-01, 1.32648394e-01,
          -2.98857331e-01, -3.10503989e-01, -4.71733600e-01,
          2.26958860e-02, -2.14876220e-01, -1.48435578e-01,
          4.68784124e-02, -1.03021659e-01, -5.69670424e-02,
          -1.94770284e-02, 1.12905018e-02, 3.25985998e-01,
          6.71172068e-02, 1.51122138e-01, 3.84316027e-01, 2.08736539e-01,
          9.61588919e-02, -5.83584234e-02, 6.25284165e-02,
          5.33208624e-02, -6.16065785e-03, -1.20850399e-01,
          -8.45292956e-03, -2.25909110e-02, -5.42553551e-02,
          1.03651829e-01, -2.61171833e-02, -1.68889672e-01,
          -2.20368341e-01, 1.70543775e-01, 9.24734101e-02,
          -1.18240938e-01, 1.13630153e-01, 9.35504809e-02,
          -1.39121845e-01, -8.95002410e-02, -1.70615882e-01,
          4.61823612e-01, 8.47546384e-02, -2.32999235e-01,
          -3.97155911e-01, -8.82734917e-03, 3.57710794e-02,
          1.52393341e-01, 2.59790361e-01, 2.11599395e-01, 2.80272603e-01,
          -1.36303768e-01, -5.51752806e-01, -7.04942822e-01,
          -2.23040551e-01, -2.96904534e-01, 1.00856744e-01,
          -5.75533621e-02, 3.03689808e-01, 6.07142091e-01,
          1.49769261e-01, -4.02191460e-01, -4.11362797e-01,
          -5.96793711e-01, -6.59336805e-01, -1.32461295e-01,
          -1.82243839e-01, -4.46545966e-02, 3.35890129e-02,
          1.34938598e-01, 1.43717498e-01, 4.55488935e-02, 1.62621140e-01,
          2.22076356e-01, 1.77503511e-01, 1.87694550e-01,
          -1.87662289e-01, -2.31637478e-01, -3.93447131e-01,
          4.08485271e-02, -1.65314227e-01, -4.09334153e-02,
          6.55946583e-02, -7.69509003e-02, -3.26163173e-02,
          -3.28594297e-02, 2.43225500e-01, -1.08243532e-01,
          2.74171680e-01, -4.68222573e-02, 1.71403158e-02,
          -1.43704072e-01, -1.29587963e-01, -2.23732889e-01,
          -1.59753680e-01, 4.13216263e-01, 7.19266236e-02,
          7.71964333e-05, 1.02212496e-01, 3.28162760e-01, 2.89169513e-02,
          1.82224661e-01, 1.06081096e-02, -4.84247953e-02,
          -6.22551069e-02, -3.69379064e-03, 6.85463548e-02,
          -4.90054041e-02, 3.68551672e-01, 2.09266931e-01,
          -8.96196589e-02, -1.50597617e-02, -5.09793311e-02,
          1.24282185e-02, -7.80316517e-02, 2.91087069e-02,
          -1.10964552e-01, 3.60844225e-01, -1.00613289e-01,
          -1.26085520e-01, -1.46398291e-01, 6.92025200e-02,
          4.16618764e-01, -5.94553240e-02, -4.62154031e-01,
          -6.40622735e-01, -2.60835797e-01, -2.99198776e-01,
          7.86388293e-02, -6.43176362e-02, 3.55670482e-01,
          4.89871085e-01, 1.44883990e-01, -3.58477056e-01,
          -3.30945879e-01, -4.42790419e-01, -6.16270185e-01,
          -1.47157505e-01, -2.11570218e-01, -1.34705782e-01,
          6.46372199e-01, 2.26000503e-01, 5.13692081e-01,
          -1.09120436e-01, -3.57943773e-01, -4.69544441e-01,
          -1.48400828e-01, -1.90590099e-01, 1.53481856e-01,
          -3.68646905e-02, -2.62587935e-01, 7.63633922e-02,
          -1.33492678e-01, -2.92824637e-02, 8.27058032e-02,
          -6.25444427e-02, -3.97938391e-04, 4.98965606e-02,
          4.67834994e-02, -1.20822027e-01, 1.95810392e-01,
          -4.76360917e-02, 6.78885952e-02, -1.29593953e-01,
          -1.43491596e-01, -2.70856917e-01, -1.95015788e-01,
          9.05797407e-02, 1.55992389e-01, 1.29084870e-01, 1.32150561e-01,
          1.65292084e-01, -1.27393201e-01, -1.27244726e-01,
          -1.33820042e-01, -9.60695967e-02, 2.12269112e-01,
          2.81490516e-02, 2.13550348e-02, -9.77393799e-03,
          3.64590704e-01, 2.90162414e-01, -5.78209944e-02,
          8.63440633e-02, 8.20287317e-02, 2.62237489e-02,
          -6.36284649e-02, 3.34230848e-02, -1.04592495e-01,
          2.91336685e-01, -5.63020669e-02, -1.05007015e-01,
          -1.43736869e-01, -2.72781309e-02, 4.50381607e-01,
          1.31908253e-01, 4.65493262e-01, 1.19686909e-01, 2.12470472e-01,
          4.15089615e-02, -9.95224863e-02, -9.23771933e-02,
          8.17875043e-02, 4.79468584e-01, 2.19947845e-01,
          -2.43423015e-01, -2.00804561e-01, -4.87018645e-01,
          -7.05983579e-01, -1.79417223e-01, -2.48295978e-01,
          -6.24734461e-02, 4.94804710e-01, 1.50370285e-01,
          4.92767036e-01, -8.13294500e-02, -3.66320848e-01,
          -5.05282104e-01, -2.31919333e-01, -2.46914446e-01,
          8.63571987e-02, 3.90114158e-01, 2.03170791e-01, 3.35286677e-01,
          1.82889551e-01, -1.21990591e-01, -3.70898575e-01,
          -1.52179092e-01, 5.88356592e-02, -2.23082919e-02,
          3.22111100e-02, -5.49631827e-02, 2.23619327e-01,
          -1.34243304e-02, 9.59696770e-02, -1.44155517e-01,
          -1.91530958e-01, -3.15792024e-01, -1.79441094e-01,
          -1.10841006e-01, 7.84153417e-02, 7.91866779e-02,
          1.29905358e-01, 7.60705695e-02, -1.89398319e-01,
          -1.59025922e-01, -2.15571776e-01, -1.86399922e-01,
          7.26073161e-02, 2.01244712e-01, 3.94759290e-02, 8.97908732e-02,
          7.91263059e-02, -8.50587189e-02, -1.98851917e-02,
          1.28126116e-02, -1.88467978e-03, -2.21778806e-02,
          9.92584508e-03, 1.43936157e-01, 2.47760750e-02, 3.13200206e-01,
          3.97349708e-02, -2.97456030e-02, -7.95767754e-02,
          -5.86692616e-03, 2.53849719e-02, -8.25770572e-02,
          1.11048728e-01, 1.03370763e-01, 1.62006333e-01, 5.62714152e-02,
          -1.27638921e-01, -1.37510985e-01, -4.46130633e-02,
          1.29182130e-01, 1.13461442e-01, 7.16702966e-03, 2.45860770e-01,
          1.76610231e-01, -6.07703179e-02, -4.94612977e-02,
          -8.56565684e-02, 1.08684137e-01, 5.46975017e-01,
          2.27146640e-01, 7.14554310e-01, -6.32304549e-02,
          -4.56587076e-01, -6.45820439e-01, -3.10229748e-01,
          -2.84901470e-01, 1.13822065e-01, 2.46602759e-01,
          1.60768554e-01, 3.16609770e-01, 1.76920205e-01,
          -9.13632140e-02, -4.46013868e-01, -2.22001284e-01,
          -2.30637547e-02, -1.40790537e-01, 2.29925327e-02,
          1.24679223e-01, -4.64185374e-03, 5.38795665e-02,
          2.01714173e-01, 4.18589748e-02, 6.87266216e-02,
          -1.99056305e-02, -6.91899378e-03, -2.59542465e-01,
          6.59960359e-02, 5.68237528e-02, 1.32027149e-01, 4.82263304e-02,
          -2.83094317e-01, -2.82669842e-01, -3.24412286e-01,
          -2.43980065e-01, -1.81448147e-01, 3.04273386e-02,
          -5.22435270e-02, 3.08129881e-02, 5.30892089e-02,
          -1.43883690e-01, -7.96159580e-02, -4.45697717e-02,
          -1.11172132e-01, 3.93283367e-02, 1.39801815e-01,
          1.90582871e-01, 7.90141746e-02, -1.78968042e-01,
          -8.04848503e-03, 4.19429056e-02, 1.94828007e-02,
          1.06427498e-01, -2.16367096e-01, -1.65052220e-01,
          7.21964613e-02, 1.02614112e-01, 3.26536477e-01, 8.36180523e-02,
          -1.59834489e-01, -2.38513112e-01, -1.15407743e-01,
          -1.39341235e-01, -9.02948752e-02, -1.05400622e-01,
          1.67767599e-01, 2.21643612e-01, -8.19898620e-02,
          -1.11250736e-01, -1.85582399e-01, 4.45990339e-02,
          -4.13845293e-02, 1.43934697e-01, 1.38604060e-01,
          6.44802675e-02, 9.54213217e-02, 1.63880605e-02, 5.73597960e-02,
          2.19189785e-02, 2.06757516e-01, 3.48970175e-01, 2.23577783e-01,
          3.93681645e-01, 2.03079507e-01, -1.26216799e-01,
          -5.16924679e-01, -2.66673535e-01, -2.23919395e-02,
          -1.29156381e-01, -2.48590842e-01, 7.76720271e-02,
          -9.56855565e-02, 1.22317197e-02, 2.39741653e-01,
          1.49916420e-02, 3.34688984e-02, -3.21962684e-02,
          -7.18066096e-02, -3.84005159e-01, 2.02769861e-01,
          1.65347666e-01, 5.19426651e-02, -3.31549114e-03,
          -2.14438755e-02, 1.02993950e-01, -8.38116556e-02,
          -2.18267217e-01, -1.84942245e-01, 6.81121182e-03,
          -9.79654118e-02, 8.15134868e-03, 9.12276469e-03,
          -2.03527912e-01, -1.33609682e-01, -5.81325255e-02,
          -8.46222937e-02, -7.41099119e-02, 7.62521103e-02,
          1.10365026e-01, -3.07889991e-02, -1.82517171e-01,
          -7.30995759e-02, 1.45905251e-02, 7.41950003e-03,
          7.00789839e-02, -2.46311978e-01, 8.83284733e-02,
          1.93366051e-01, -1.13459729e-01, 1.20189793e-01,
          -3.90835181e-02, 7.13263378e-02, 5.54088764e-02,
          2.81794667e-02, -5.87864555e-02, -9.69588161e-02,
          -2.20987052e-02, 2.47173548e-01, 2.95865864e-01,
          -3.67415324e-02, -7.59638660e-03, -1.24502867e-01,
          1.76018268e-01, -1.34803504e-01, 6.66567087e-02,
          -2.49255132e-02, 4.60562669e-02, 1.28518075e-01,
          -1.85205694e-02, 5.03695123e-02, 8.89916252e-03,
          1.65817693e-01, -2.64190346e-01, 2.86820903e-02,
          -1.59164369e-01, 1.22097701e-01, 1.54705599e-01,
          -1.22986827e-02, -8.09503272e-02, -1.31661087e-01,
          -3.43053401e-01, -1.28913850e-01, -7.58802220e-02,
          2.46273026e-01, 4.12952341e-02, -2.00327542e-02,
          -1.89241394e-01, -1.02061212e-01, -2.57042740e-02,
          -1.90705851e-01, -6.57925084e-02, 1.49603169e-02,
          -1.42697185e-01, 8.85979682e-02, -3.64314616e-02,
          1.09075777e-01, 8.72398093e-02, -5.32066822e-03,
          -2.33524695e-01, 1.62671998e-01, 1.39696021e-02,
          1.43583938e-01, 5.14292009e-02, 8.58063027e-02, 7.44859800e-02,
          9.96617749e-02, 1.22577168e-01, -8.35343171e-03,
          -1.72933280e-01, -1.44893914e-01, -1.66556522e-01,
          -1.50515541e-01, -4.04443711e-01, -6.22064285e-02,
          -1.20105132e-01, -2.16196254e-01, -2.08152518e-01,
          -1.80497859e-02, -1.76944613e-01, -1.16146527e-01,
          -6.69073015e-02, -1.14699669e-01, -8.87721032e-03,
          6.55282810e-02, 9.95204672e-02, -3.03473681e-01,
          2.97043622e-02, 2.88129359e-01, 8.30559526e-03,
          -9.99663547e-02, -5.30914925e-02, -1.99542828e-02,
          -1.11048277e-02, -1.02172352e-01, -7.89562240e-02,
          3.30911428e-01, 1.16745226e-01, -2.47865319e-02,
          9.86393318e-02, -1.82218552e-01, -4.67102826e-02,
          5.49254455e-02, 5.26690409e-02, 1.09694436e-01, 9.24108550e-02,
          3.53495181e-02, 1.66255068e-02, 2.32917503e-01, 6.61725923e-02,
          -9.61961150e-02, -1.55198112e-01, -4.19226401e-02,
          -1.58329591e-01, 2.05140889e-01, 1.59544662e-01,
          1.29365966e-01, 2.67563850e-01, 2.20083252e-01, 8.37622732e-02,
          1.79708868e-01, 1.32755548e-01, -1.73867177e-02,
          1.14827923e-01, 1.17996909e-01, -4.74878103e-02,
          1.70550376e-01, -1.04669131e-01, 1.11881949e-01,
          7.82141909e-02, 1.70288179e-02, -1.32532954e-01,
          -1.69524640e-01, -9.98406485e-02, 1.06409922e-01,
          5.89421652e-02, -2.13193055e-02, 6.57012239e-02,
          6.52692914e-02, 2.13397536e-02, 4.13023904e-02,
          -9.07361582e-02, 1.29990384e-01, -1.75410677e-02,
          -1.20501436e-01, -6.01346865e-02, 1.05977401e-01,
          2.03016877e-01, 2.01709554e-01, -1.54871657e-01,
          1.38198450e-01, -9.90704745e-02, -9.86625999e-02,
          -1.38122234e-02, -1.32945225e-01, 5.87195307e-02,
          1.03972383e-01, 1.16848521e-01, -1.92804754e-01,
          -1.00216590e-01, 2.19448552e-01, -7.61586577e-02,
          -5.56902103e-02, -8.23227242e-02, 4.23829397e-03,
          -9.87518951e-03, -1.46318361e-01, -8.66565928e-02,
          1.26530379e-01, 3.08216140e-02, -1.95648089e-01,
          -1.33724615e-01, -1.56204835e-01, -1.32126212e-01,
          9.45672095e-02, -7.77844787e-02, -1.82096809e-01,
          2.16274172e-01, 1.26534048e-02, 3.82102616e-02, 1.72725022e-01,
          -4.44740020e-02, -6.60889447e-02, -1.49975374e-01,
          -4.47731279e-02, -1.08319119e-01, -3.54601406e-02,
          -1.52469605e-01, -3.63466740e-01, 9.66125503e-02,
          3.38690877e-02, 2.67759934e-02, 1.47727057e-01, 6.14999793e-02,
          3.66146229e-02, 8.62030163e-02, -4.58306670e-02,
          -2.48981580e-01, -1.30246416e-01, 7.26938099e-02,
          9.66267660e-02, 3.92081589e-02, 1.37313336e-01,
          -2.45913547e-02, -1.11664347e-01, -3.73111442e-02,
          2.57630795e-01, 2.23284870e-01, 1.68175250e-01, 1.24046579e-01,
          1.11692481e-01, -4.78466414e-03, 1.19942658e-01,
          -2.40197644e-01, 9.11930427e-02, 3.80910598e-02,
          -3.07392329e-02, 2.47974191e-02, 1.11265518e-01,
          1.49432540e-01, 1.46477804e-01, -2.73220092e-01,
          -1.95507482e-01, -4.08138782e-01, 6.92806691e-02,
          -1.29924148e-01, 7.97882229e-02, 1.58410251e-01,
          -6.32415712e-02, -6.37083650e-02, 1.91092603e-02,
          1.72043953e-03, 2.79185146e-01, 6.39127716e-02, 9.22247097e-02,
          1.03430241e-01, 9.61125791e-02, 4.09632288e-02,
          -1.02817476e-01, -3.53912972e-02, 2.60460563e-02,
          -7.59115517e-02, -1.70256764e-01, -1.05569266e-01,
          -1.18055470e-01, -9.23331976e-02, 6.57369494e-02,
          -1.10585801e-01, -1.94351435e-01, -1.33556098e-01,
          1.01687044e-01, -4.40853164e-02, -2.67320961e-01,
          -4.86948155e-02, 6.51478991e-02, -1.61324710e-01,
          -6.68020621e-02, -7.87423104e-02, 2.24461973e-01,
          -5.20282462e-02, -2.13315412e-01, 1.65303260e-01,
          7.39483759e-02, 6.63937554e-02, 2.08807692e-01, 1.39906883e-01,
          3.15803885e-01, 3.76029983e-02, -2.21622244e-01,
          -3.83771271e-01, -6.84668869e-02, 1.54861405e-01,
          9.71333534e-02, 3.53930071e-02, 9.22328010e-02,
          -1.40958698e-02, 1.44179091e-01, -7.44990930e-02,
          -4.25218999e-01, 3.93464379e-02, -1.39763176e-01,
          -9.78148282e-02, -7.82518163e-02, -1.85916305e-01,
          -1.67237654e-01, 8.02943334e-02, 1.27678052e-01,
          1.68764904e-01, 3.57378833e-02, 3.64725105e-02, 9.52794179e-02,
          1.40498996e-01, 1.78373829e-01, -1.90324381e-01,
          -1.90457195e-01, -3.60799730e-01, 6.34449422e-02,
          -1.57565847e-01, 5.53550124e-02, 1.01941288e-01,
          -8.32334459e-02, -5.95888123e-02, -4.08529975e-02,
          1.72995985e-01, -2.78816349e-03, 2.85697788e-01,
          -5.17971888e-02, 1.68521315e-01, -9.93876979e-02,
          -9.30929407e-02, -2.18335330e-01, -7.24678412e-02,
          2.75143921e-01, -3.62205394e-02, -9.93611962e-02,
          -4.61159348e-02, 3.01227085e-02, -4.82826196e-02,
          8.75741690e-02, -8.97624269e-02, -1.33728117e-01,
          -7.55361374e-03, -1.86631754e-02, -8.40442926e-02,
          -2.47180492e-01, 3.97696942e-02, 9.72687975e-02,
          -1.32419646e-01, -3.97140980e-02, 4.12546971e-04,
          1.18168794e-01, -5.46741933e-02, -2.12839320e-02,
          -2.62876213e-01, 6.03897236e-02, -1.73870698e-01,
          -1.47167280e-01, -1.60878211e-01, 7.50144422e-02,
          3.21732134e-01, -1.41951546e-01, -2.73653746e-01,
          -3.28202313e-03, 2.25836307e-01, 2.11421311e-01,
          9.71874595e-02, 1.53914869e-01, 9.01828259e-02, 2.73572773e-01,
          -3.55054513e-02, -3.11215252e-01, 7.67870322e-02,
          -1.32061560e-02, -8.06056261e-02, -4.01824415e-02,
          -1.45347148e-01, -1.25932813e-01, 3.66274565e-01,
          5.07124141e-02, -3.13459598e-02, 4.08076793e-02,
          -2.59347737e-01, -2.02871576e-01, -2.63825338e-02,
          -5.28530292e-02, -4.14609648e-02, -5.90946078e-02,
          -2.30898127e-01, 1.54859990e-01, -1.22583389e-01,
          -4.78151953e-03, 9.19832811e-02, -8.37976113e-02,
          -3.36471051e-02, 1.12436758e-02, 1.07025285e-03,
          -3.46795022e-02, 2.67987400e-01, -5.71793281e-02,
          1.51726201e-01, -1.11885563e-01, -1.19073085e-01,
          -2.43658334e-01, -1.52777538e-01, -3.53134610e-02,
          9.16762277e-02, 9.28444713e-02, 9.15939808e-02, 1.45827428e-01,
          -8.99130702e-02, -9.43462625e-02, -1.32724956e-01,
          -1.97707579e-01, 2.11143360e-01, -1.59937590e-02,
          -5.68287596e-02, -1.75457045e-01, 3.45704630e-02,
          1.48588970e-01, -1.06487572e-01, 2.34945789e-02,
          1.10115975e-01, 8.91425088e-02, -6.69919029e-02,
          3.96156497e-03, -2.48730630e-01, 8.59357342e-02,
          -1.60874605e-01, -1.36806130e-01, -1.88824311e-01,
          -4.77312431e-02, 2.63035476e-01, -9.44156051e-02,
          9.86918435e-02, 4.49040867e-02, -4.40500267e-02,
          -2.29907874e-03, -9.01012272e-02, -1.15717858e-01,
          3.78113799e-02, 4.48761612e-01, -7.59996194e-03,
          -2.50739902e-01, 9.37137976e-02, -4.10891185e-03,
          -2.81759761e-02, 1.71652306e-02, -8.56023729e-02,
          -5.05788811e-03, 2.47690082e-01, 1.89996623e-02,
          -1.54833138e-01, -3.17348912e-02, -3.16198498e-01,
          -1.31049052e-01, -2.86467969e-02, -4.72897328e-02,
          -2.42181718e-02, 4.11788136e-01, 2.15878174e-01,
          2.59821545e-02, 1.01234391e-02, 1.32428631e-01,
          -2.18906477e-01, -1.28351003e-01, -1.94411635e-01,
          1.11584432e-01, 3.99713777e-02, 9.05930027e-02, 4.52617824e-01,
          2.60996930e-02, 1.65999144e-01, -1.08554102e-01,
          -1.42103299e-01, -2.46932641e-01, -1.07347496e-01,
          -9.15063173e-02, 1.03288718e-01, 1.36190832e-01,
          1.66215107e-01, 1.01274081e-01, -1.12548098e-01,
          -1.01254314e-01, -1.82713851e-01, -1.86174572e-01,
          1.14056453e-01, 2.13538274e-01, 4.13983352e-02, 7.02634379e-02,
          8.97490904e-02, -3.12808305e-02, 4.00172517e-04,
          1.58447791e-02, -4.75417823e-02, 2.83723865e-02,
          -2.51693018e-02, 1.13564745e-01, -1.69591591e-01,
          7.52725303e-02, -1.44961759e-01, -1.20091468e-01,
          -2.04673454e-01, -4.55750600e-02, 3.82545702e-02,
          -1.89530492e-01, -2.85369065e-03, 3.11134756e-02,
          -6.74805418e-02, 9.92097799e-03, -1.12068795e-01,
          -1.39281705e-01, -2.38587353e-02, 1.33026317e-01,
          8.82586315e-02, -5.65550216e-02, 1.53994441e-01,
          1.96279958e-02, -8.16899985e-02, -2.45874934e-02,
          -7.53698349e-02, 5.95040359e-02, 2.90923923e-01,
          2.44782809e-02, -1.33029595e-01, -3.24864276e-02,
          -3.46544325e-01, -3.20858546e-02, -7.39889499e-03,
          -2.90702339e-02, 8.04122686e-02, 8.95346254e-02,
          4.04543839e-02, -2.31005829e-02, 7.30624273e-02,
          7.40397945e-02, -2.33059376e-01, -1.59444883e-01,
          -2.46787354e-01, -5.91057837e-02, 3.21117610e-01,
          2.54089832e-01, 2.65017062e-01, 9.55210403e-02, 1.88348919e-01,
          -2.94707388e-01, -1.16075993e-01, -2.61306584e-01,
          -1.25591561e-01, -1.97595209e-01, 1.58955380e-01,
          1.62058562e-01, 2.29208857e-01, 9.65812877e-02,
          -1.44827276e-01, -1.78211093e-01, -2.38951176e-01,
          -1.64440244e-01, -7.78456554e-02, 1.08281866e-01,
          -8.07851646e-03, 7.93598741e-02, 7.63888881e-02,
          -5.65100275e-02, -3.59504074e-02, 4.42556525e-03,
          -1.07748851e-01, 1.26883075e-01, 1.77841663e-01,
          2.58796751e-01, 1.15366541e-01, -1.08744189e-01,
          4.49694321e-02, 8.18164423e-02, 6.61496520e-02, 2.19941318e-01,
          -1.44602120e-01, -2.05944270e-01, 1.52685000e-02,
          4.11577821e-02, -8.52556229e-02, -2.37331763e-02,
          -1.46727294e-01, -2.35020831e-01, -9.01623368e-02,
          -1.06196254e-01, -3.12310532e-02, -1.22997858e-01,
          9.33146253e-02, -5.24626337e-02, -1.07362635e-01,
          -7.63179138e-02, -1.19156547e-01, 6.58261478e-02,
          -4.46525626e-02, 1.46743461e-01, 5.60461171e-02,
          -6.08269498e-03, -9.96258259e-02, 1.22699197e-02,
          5.52148931e-02, 5.49732447e-02, 1.77728653e-01,
          -8.21436346e-02, 4.95792069e-02, 1.13368956e-02,
          2.49093994e-01, 6.72079772e-02, -2.81176120e-01,
          -2.34268591e-01, -3.65837157e-01, -7.29198232e-02,
          8.96156728e-02, 1.73333481e-01, 1.78135648e-01, 6.77099377e-02,
          8.85274187e-02, -2.94963062e-01, -1.74920261e-01,
          -2.79070944e-01, -1.72828287e-01, 1.85216233e-01,
          1.80971965e-01, 1.10682003e-01, 7.55192265e-02, 1.56474546e-01,
          5.93789257e-02, -9.35999602e-02, 3.31154242e-02,
          1.02486205e-03, -7.20136985e-02, 1.26132831e-01,
          -2.44176835e-02, 1.04359582e-01, 1.73671804e-02,
          -1.27507970e-01, -8.93055648e-02, -3.37513760e-02,
          -8.72231051e-02, -4.42480855e-03, 1.37702167e-01,
          1.96316108e-01, 4.42061201e-02, -1.55282065e-01,
          -1.22930529e-02, 5.21848164e-02, 3.63484174e-02,
          1.11030623e-01, -1.78005129e-01, 1.63883373e-01,
          2.24740803e-01, -1.95223037e-02, 1.20840944e-01,
          2.99406126e-02, 1.17019929e-01, 8.86872858e-02, 5.44903390e-02,
          -1.34721741e-01, -5.38088977e-02, -1.24069512e-01,
          6.41628653e-02, -1.13823436e-01, -1.47131398e-01,
          -1.30072460e-01, -1.23116173e-01, 1.53743386e-01,
          -1.24187626e-01, 9.56977084e-02, -8.56576189e-02,
          -7.25265965e-02, -1.06419854e-01, -2.97131464e-02,
          2.90239640e-02, 1.47230402e-02, 1.57459095e-01,
          -1.29250467e-01, -3.92824039e-03, -2.77323544e-01,
          3.99292186e-02, -1.34799957e-01, -4.74143215e-02,
          -4.02169190e-02, -9.87615883e-02, -2.58458585e-01,
          2.90979952e-01, 1.97889939e-01, 9.48233455e-02, 9.94629934e-02,
          8.87777805e-02, -3.08072418e-01, -2.05624714e-01,
          -2.23868951e-01, -5.76019175e-02, -3.58114913e-02,
          6.87896311e-02, -3.71675827e-02, -3.35591845e-02,
          1.59710124e-01, 7.91832507e-02, -6.70661777e-02,
          2.23506242e-02, -4.03894149e-02, -4.01581302e-02,
          7.75786266e-02, -7.64666349e-02, -1.63098760e-02,
          2.15097755e-01, -3.42799686e-02, 2.13786498e-01,
          -1.24598853e-01, -9.48452577e-02, -7.03616887e-02,
          -7.50527605e-02, -1.23484552e-01, -1.41221061e-01,
          -4.04400766e-01, -6.31579477e-03, -7.25593045e-02,
          -1.61040008e-01, -2.38812789e-01, 2.95862388e-02,
          -1.91045091e-01, -9.99666825e-02, -6.32627234e-02,
          -8.97699594e-02, 2.40187459e-02, 7.58529231e-02,
          8.88494551e-02, -3.03263634e-01, 6.72641024e-02,
          3.05656523e-01, -3.05339415e-02, -7.01396838e-02,
          -4.21772376e-02, 1.97231323e-02, 2.52507394e-03,
          -1.03594564e-01, -1.30056530e-01, 3.18518996e-01,
          8.86199474e-02, -8.31880346e-02, 2.60762293e-02,
          -2.39900619e-01, -1.09522544e-01, 1.14509603e-02,
          3.05944905e-02, 9.05645713e-02, 7.15556145e-02,
          -1.29736438e-02, -5.64291477e-02, 1.33663982e-01,
          -4.15404253e-02, -9.71818343e-02, -1.64605528e-01,
          -4.49597761e-02, -1.62803054e-01, 2.80883387e-02,
          -1.50802329e-01, -4.24578667e-01, 5.33487424e-02,
          -3.16622704e-02, 3.67893353e-02, 1.17163599e-01,
          7.14773834e-02, -3.48156579e-02, 3.31641108e-01,
          1.85256317e-01, 1.35187924e-01, 4.57651094e-02, 1.51875451e-01,
          -1.96960326e-02, -3.62727046e-02, 3.58347856e-02,
          3.15932661e-01, 1.61913261e-02, 8.58364105e-02, 1.41397178e-01,
          2.07212623e-02, -7.09150685e-03, -7.67052546e-03,
          5.06095216e-02, 7.84818307e-02, -7.43274018e-02,
          -1.71283446e-02, 1.50395691e-01, 2.99373437e-02,
          7.07166269e-02, 6.06556907e-02, 6.04836605e-02,
          -1.60184782e-02, 1.18141197e-01, 1.60084471e-01,
          2.08798274e-01, -7.67345726e-02, -9.55119058e-02,
          -2.40741633e-02, -1.16097495e-01, 8.66269916e-02,
          1.22305855e-01, 1.22801393e-01, -1.92706510e-01,
          -3.93368639e-02, 2.81489342e-01, -8.59018266e-02,
          -2.07416620e-02, -2.39345059e-02, 5.00434376e-02,
          1.84303336e-02, -1.37622714e-01, -1.01393797e-01,
          1.85380101e-01, 3.40556493e-03, -9.19156149e-02,
          -9.35648009e-02, -1.09808922e-01, -8.27783942e-02,
          1.02341771e-01, -1.04779772e-01, -1.17095031e-01,
          2.53473550e-01, 1.23453303e-03, -3.79484929e-02,
          1.34775519e-01, -1.34891987e-01, -1.01887703e-01,
          -1.53437525e-01, -5.05056493e-02, -1.04925655e-01,
          -1.50040798e-02, -2.06721544e-01, -4.81063664e-01,
          3.85950841e-02, -7.37048015e-02, 4.18911912e-02,
          1.16541661e-01, 4.64406535e-02, 5.76687679e-02, 7.44506046e-02,
          -1.69519752e-01, -3.71044546e-01, -2.25273848e-01,
          -6.29700199e-02, 8.69290456e-02, 4.56247665e-02,
          1.04407810e-01, -6.19385317e-02, 1.68800652e-01,
          1.04702041e-01, 1.42247438e-01, 3.59311923e-02,
          -1.20680235e-01, -2.47776252e-03, 5.22783585e-02,
          5.62866405e-02, -5.39852381e-02, -7.91090354e-02,
          -1.46189302e-01, -1.91522896e-01, 7.95894265e-02,
          3.59272026e-02, 1.04525477e-01, 7.86908064e-03, 8.17673877e-02,
          1.45548940e-01, 6.82348087e-02, -2.79152483e-01,
          -1.45363465e-01, 1.38411120e-01, 3.04369926e-01,
          1.54493570e-01, 7.80763179e-02, 1.12256303e-01, 1.00902863e-01,
          -5.93132414e-02, 2.70672917e-01, 1.34608343e-01,
          5.28969169e-02, 1.59385532e-01, 8.45111385e-02, 3.05709355e-02,
          -1.52414486e-01, -1.35970294e-01, -3.98143753e-02,
          -9.16840136e-02, -1.70636818e-01, -1.06832922e-01,
          -7.76696131e-02, -8.32042024e-02, 5.03346138e-02,
          -1.75174311e-01, -2.71166503e-01, -1.18991211e-01,
          4.96382751e-02, -1.30366087e-01, -3.20800394e-01,
          -8.04721415e-02, 1.16960086e-01, -1.25552237e-01,
          -5.40859587e-02, -3.26272249e-02, 1.35096356e-01,
          -2.00148746e-01, -4.07653958e-01, 6.48483858e-02,
          -8.89926180e-02, 3.34955528e-02, 1.28742233e-01,
          7.98340440e-02, 2.18464941e-01, 1.07714366e-02,
          -3.24497372e-01, -4.59906012e-01, -1.79105937e-01,
          -3.80656868e-03, 8.75822678e-02, 2.96252221e-02,
          6.95374832e-02, -2.51922440e-02, 2.81985521e-01,
          -6.95178434e-02, -4.03580219e-01, -8.59043095e-04,
          -4.82446281e-03, -8.25387239e-02, -7.29653165e-02,
          -1.80871382e-01, -7.64022693e-02, 1.68838158e-01,
          -8.07376653e-02, -8.58271345e-02, 1.85810134e-01,
          9.41619650e-02, 1.57331765e-01, 3.48236077e-02, 1.14141390e-01,
          3.63849789e-01, -2.17082612e-02, -2.55648136e-01,
          -1.00407124e-01, 1.88581407e-01, 2.24769235e-01,
          1.58095837e-01, 8.30387324e-02, 1.31815925e-01, 5.20985797e-02,
          1.33303283e-02, -5.91408797e-02, -4.21345346e-02,
          2.31522188e-01, -8.20491463e-02, 2.58851033e-02,
          6.45483732e-02, 2.73292307e-02, 1.82829380e-01, 2.35331491e-01,
          -9.68149304e-02, -1.13588974e-01, -1.18016399e-01,
          1.79220010e-02, -8.07629898e-02, 3.63007933e-02,
          -1.81755751e-01, -2.70632416e-01, -8.53903666e-02,
          -5.04430868e-02, -2.12374717e-01, -3.58126700e-01,
          -7.78076649e-02, 7.34771416e-02, -1.55772030e-01,
          -8.10296237e-02, -4.06727716e-02, 1.45407140e-01,
          -8.47980455e-02, -8.43771845e-02, -3.79068315e-01,
          -6.42588884e-02, -2.01609433e-01, -1.99215651e-01,
          -1.63041219e-01, 6.53161407e-02, 1.80633351e-01,
          -2.58609116e-01, -4.30766314e-01, -1.59382969e-01,
          2.10149530e-02, 9.87383723e-02, 7.13469386e-02, 1.11671455e-01,
          2.84627806e-02, 3.22186679e-01, -8.83803591e-02,
          -3.71001571e-01, -7.99078587e-03, -1.74583159e-02,
          -1.09905533e-01, -6.44541234e-02, -1.90538749e-01,
          -7.33476654e-02, 3.38667244e-01, 1.45407664e-02,
          -1.56302750e-01, -9.00178775e-02, -9.78461578e-02,
          -2.37275764e-01, -9.30621624e-02, -5.56460097e-02,
          -5.79204829e-03, 2.05316067e-01, -7.95826837e-02,
          3.65910656e-03, 2.55628645e-01, 1.91425681e-01, 2.04101875e-01,
          1.13002762e-01, 2.29527801e-01, 2.69205749e-01, 1.47368297e-01,
          -3.87681723e-02, 1.48215033e-02, 2.06565186e-01,
          3.04643568e-02, 5.30928671e-02, 6.61718100e-02, 1.93727184e-02,
          1.70440599e-01, 3.98791760e-01, 9.54634175e-02, 1.46968350e-01,
          9.20202807e-02, -7.00120255e-02, 9.32261795e-02,
          -5.43931164e-02, 1.25919413e-02, -2.43472066e-02,
          1.35808438e-01, -3.77854556e-02, -1.44792855e-01,
          -2.96586871e-01, -9.33859870e-02, 9.43552926e-02,
          -1.33982763e-01, -4.64543700e-02, 7.61485621e-02,
          7.19632730e-02, -1.01574592e-01, -6.78791627e-02,
          -3.86665076e-01, 4.25898284e-02, -2.24777699e-01,
          -2.10863903e-01, -2.05319315e-01, -7.84476697e-02,
          6.99889362e-02, -2.82932729e-01, -1.06989061e-02,
          -1.29680149e-02, -1.06727041e-01, -4.24858034e-02,
          -1.31092817e-01, -2.13971660e-01, -1.37605309e-01,
          4.50101644e-01, -7.01937750e-02, -3.40894014e-01,
          3.14851068e-02, 5.74874785e-03, -9.33489725e-02,
          -3.41535993e-02, -1.60392344e-01, 1.97669696e-02,
          2.89998442e-01, -3.75975184e-02, -2.62579918e-01,
          -1.80546567e-01, -9.75289196e-02, -1.88374400e-01,
          -8.99107158e-02, -6.60963133e-02, -1.22080501e-02,
          2.78163433e-01, 1.37327299e-01, -1.14160672e-01,
          -1.08046114e-01, -5.07664531e-02, -2.90653080e-01,
          -2.11687282e-01, -2.77834773e-01, -4.41345386e-02,
          2.98122674e-01, 2.09309328e-02, 7.58233592e-02, 2.58080035e-01,
          1.53286651e-01, 1.30794048e-01, 5.96297383e-02, 6.02904260e-02,
          1.77165404e-01, 2.83582777e-01, 4.59452998e-03, 3.80030274e-02,
          9.58743691e-02, -7.56345466e-02, 1.09095536e-01,
          -5.17050661e-02, 3.55723426e-02, -4.16399678e-03,
          5.50122917e-01, 1.56413123e-01, 7.69251212e-02, 1.57340795e-01,
          2.00184837e-01, -1.88735291e-01, 6.59400597e-02,
          -6.25544414e-02, 2.35719867e-02, 4.63988669e-02,
          8.01517908e-03, 1.66167796e-01, -2.10514292e-01,
          1.05505519e-01, -1.84025615e-01, -1.54612049e-01,
          -2.26995766e-01, -4.71066013e-02, -3.85742597e-02,
          -2.57819563e-01, -1.87916718e-02, 5.50145321e-02,
          -5.51886857e-02, -8.34018085e-03, -1.08278424e-01,
          -1.73605591e-01, -1.19116135e-01, 4.94334809e-02,
          1.29987672e-02, -1.19441397e-01, 6.89348653e-02,
          1.34745091e-02, -9.15971920e-02, -3.43052000e-02,
          -1.17456041e-01, 5.72828129e-02, 3.32647175e-01,
          -2.77508255e-02, -2.60191947e-01, -1.90676317e-01,
          -8.02940056e-02, -1.13316417e-01, -6.14850707e-02,
          -3.86504456e-02, 5.19619882e-02, 1.06101260e-01,
          5.00119478e-02, -1.16825864e-01, -3.08075491e-02,
          1.16990460e-03, -2.60306239e-01, -1.91447973e-01,
          -2.51556456e-01, -5.43626510e-02, 2.59284645e-01,
          1.27471760e-01, 7.81672746e-02, 3.21535431e-02,
          -1.17505036e-01, -3.80851358e-01, -2.00483128e-01,
          -3.37776423e-01, -1.60735667e-01, 3.03629637e-01,
          2.58585718e-02, -5.20460028e-03, 1.48272231e-01,
          -6.46700338e-02, 1.43771559e-01, -2.31474638e-02,
          9.66806710e-02, 8.63308087e-02, 2.94358522e-01, 1.27894238e-01,
          4.56138514e-02, 1.78682089e-01, 1.66754857e-01,
          -1.55789003e-01, 5.72461225e-02, -9.82934758e-02,
          -1.75853536e-01, 3.91568452e-01, 2.69518614e-01,
          3.26662987e-01, 2.19578832e-01, 2.22587496e-01,
          -3.50261070e-02, -5.43526448e-02, -1.27380461e-01,
          -3.25120315e-02, -1.00665480e-01, -1.49216712e-01,
          1.80255473e-01, 1.74546912e-01, -8.69417265e-02,
          2.95543624e-03, -1.12884589e-01, -1.88409522e-01,
          -1.10947870e-01, -1.26723751e-01, -2.83630751e-02,
          -1.09103717e-01, 9.32794809e-02, -3.49927060e-02,
          -8.96349251e-02, -5.39145991e-02, -1.04894653e-01,
          8.59335214e-02, -6.45512342e-02, 1.31482288e-01,
          4.33911495e-02, -2.02727392e-02, -1.30703682e-02,
          2.16636378e-02, 7.08625689e-02, 7.52687305e-02, 1.13954440e-01,
          -1.60617363e-02, 4.05099988e-02, -5.57711124e-02,
          6.76987544e-02, -6.99430108e-02, -2.72608638e-01,
          -2.35226214e-01, -3.23585749e-01, -3.02805398e-02,
          1.14765875e-01, 1.15029842e-01, 8.15016329e-02, 2.01329426e-03,
          -1.73226193e-01, -3.32806587e-01, -1.88541427e-01,
          -3.10168654e-01, -1.46828517e-01, 2.02844024e-01,
          9.10044461e-02, -3.20252962e-02, -1.18622733e-02,
          -9.30148065e-02, -3.88323963e-02, -1.57914430e-01,
          -3.67182866e-02, -1.33188302e-02, 1.32815659e-01,
          1.08171970e-01, 4.30052280e-02, 2.35190079e-01, 1.16582453e-01,
          -1.83062300e-01, 2.80959178e-02, -1.99994996e-01,
          -3.59473318e-01, 8.36387947e-02, 2.31676370e-01,
          3.18081975e-01, 2.09405884e-01, 1.81955636e-01,
          -3.76980975e-02, -9.72664431e-02, -1.84311375e-01,
          -1.45210534e-01, 3.00165594e-01, 2.38799766e-01,
          1.46958932e-01, 1.81739643e-01, 1.52952775e-01,
          -1.28440544e-01, -7.54448399e-03, -7.65116215e-02,
          8.10889006e-02, -1.90365046e-01, -2.84194555e-02,
          -1.24253154e-01, 6.16312362e-02, -1.03315398e-01,
          -1.29079908e-01, -1.25073999e-01, -1.04564793e-01,
          1.45793602e-01, -1.14061177e-01, 1.28166333e-01,
          -6.75356388e-02, -3.98214832e-02, -7.33738169e-02,
          1.07476432e-02, 3.79120745e-02, 5.39165139e-02, 1.38987213e-01,
          -5.66955134e-02, 6.89603947e-03, -2.58355618e-01,
          1.31484598e-01, -1.58499733e-01, -1.67344790e-02,
          -1.94319058e-02, -3.42143662e-02, -1.71075165e-01,
          2.17966437e-01, 1.06546655e-01, 4.03518453e-02,
          -3.06643434e-02, -2.94721514e-01, -3.58643293e-01,
          -2.18865529e-01, -2.97249883e-01, -7.74315074e-02,
          5.30148521e-02, 5.40093295e-02, -1.11883491e-01,
          -6.19929023e-02, -9.16076303e-02, -1.73764825e-02,
          -1.26666144e-01, -2.87195370e-02, 9.59213823e-03,
          6.10134043e-02, 1.31214365e-01, -3.63709182e-02,
          -8.91244039e-02, 1.10137075e-01, -2.78695356e-02,
          1.74330667e-01, -1.30879089e-01, -2.63680089e-02,
          6.21303655e-02, 2.15574503e-01, 2.77191371e-01, 1.58731192e-01,
          1.41570985e-01, -9.01859999e-02, -4.02342193e-02,
          -2.42489249e-01, -1.35189995e-01, 8.50086883e-02,
          1.89207911e-01, 7.04196244e-02, 1.14170976e-01, 5.72163565e-03,
          -2.17928201e-01, -8.38702023e-02, -8.66170600e-02,
          -8.01856667e-02, 1.85479760e-01, 1.97998986e-01,
          2.50465214e-01, 7.79012591e-02, 1.28879696e-02, 7.33891949e-02,
          1.40158623e-01, -7.97134861e-02, 1.12426750e-01,
          2.22799778e-01, 5.16705494e-03, -2.50973880e-01,
          -3.73082538e-03, -1.97032243e-01, -1.21260256e-01,
          -5.62739279e-03, 5.01147099e-02, 3.99223007e-02,
          4.03291471e-02, -8.79477561e-02, -1.83732823e-01,
          1.78857923e-01, 6.90769311e-03, -1.07454017e-01,
          -2.36245081e-01, -9.92331207e-02, -2.19934270e-01,
          6.23640455e-02, -2.35584170e-01, -4.68259335e-01,
          3.12798209e-02, -1.41550556e-01, 2.77489908e-02,
          4.24879454e-02, 2.24399157e-02, -7.35540390e-02,
          1.79717287e-01, 1.13646246e-01, 5.51120155e-02, 2.04924978e-02,
          1.49115935e-01, -5.01889102e-02, -6.02902211e-02,
          3.41775082e-02, 1.90199822e-01, -7.70498347e-03,
          5.44744870e-03, 4.05259505e-02, -6.07173443e-02,
          2.57575791e-02, -4.74077277e-03, 3.68671156e-02,
          6.18461929e-02, -8.57227221e-02, 1.61641184e-02,
          -1.42723262e-01, -1.66816950e-01, 1.06387369e-01,
          6.75982237e-02, 9.31001082e-02, -3.48287746e-02,
          7.32153282e-02, 6.11603260e-02, -1.30022705e-01,
          1.05555169e-01, 1.71051741e-01, -1.32773831e-01,
          -2.38414966e-02, -4.40234505e-02, 9.17138904e-02,
          1.41452000e-01, 4.48612031e-03, -1.19419143e-01,
          -2.16103196e-01, 1.69507470e-02, 2.26352587e-01,
          -7.37536326e-02, 1.14553072e-01, 4.64981087e-02,
          9.00988653e-02, -2.84911599e-02, 3.37411463e-02,
          -8.40523764e-02, 1.20148761e-02, 1.02235861e-01,
          -6.98811794e-03, 8.79255012e-02, 1.48370042e-01,
          1.59793556e-01, -2.21125502e-02, 1.48614734e-01,
          -1.21807948e-01, -2.91323662e-01, 1.10603601e-01,
          -8.76185596e-02, -1.45282075e-01, -2.22975925e-01,
          -1.05279163e-01, -1.93406686e-01, -1.96192488e-02,
          -3.07815075e-01, -5.68524241e-01, 3.42351012e-02,
          -1.43066674e-01, 5.97562082e-02, 5.01198918e-02,
          1.75966639e-02, -1.98866427e-02, 2.13246178e-02,
          -2.98760504e-01, -3.65973800e-01, -2.52010465e-01,
          -4.44065332e-02, 1.50720775e-01, 4.56072912e-02,
          1.30441397e-01, -1.19720578e-01, 5.26345521e-02,
          -3.90448831e-02, -3.67186381e-03, -3.06328572e-02,
          -5.83449490e-02, 1.17676994e-02, 5.53215221e-02,
          4.46346365e-02, -5.83396554e-02, 7.73274712e-03,
          -2.08776489e-01, -2.43292391e-01, 7.31749386e-02,
          5.91777600e-02, 1.30931273e-01, 9.09833994e-04, 7.60078505e-02,
          1.18624985e-01, 1.11368615e-02, -2.80496955e-01,
          -1.62115842e-01, 1.02901414e-01, 1.78155020e-01,
          1.41811296e-01, 7.69711882e-02, 1.31787449e-01, 3.62877809e-02,
          1.00741260e-01, -2.45998621e-01, 4.23618741e-02,
          2.81219393e-01, 6.23425730e-02, 1.24284439e-01, 9.89332870e-02,
          9.58988518e-02, 5.25219329e-02, 1.85806900e-01,
          -1.59854725e-01, 4.74112704e-02, 1.07764095e-01,
          1.59708671e-02, 1.50045663e-01, 1.62137568e-01, 1.79537714e-01,
          1.14027604e-01, -7.58279786e-02, -1.69739053e-01,
          2.84084857e-01, 2.60161340e-01, 1.29355222e-01, 1.60988674e-01,
          6.50904626e-02, -5.66630345e-03, -6.40938058e-02,
          -5.59201203e-02, -4.62711602e-01, -5.54639697e-01,
          -2.48189699e-02, -1.77883968e-01, 5.12993988e-03,
          3.39247957e-02, 2.19333731e-02, 4.61529009e-03,
          -6.82051182e-02, -5.00315845e-01, -5.69562495e-01,
          -2.98277080e-01, -6.04676418e-02, 1.25647709e-01,
          2.42183893e-03, 3.73926349e-02, -1.37654483e-01,
          3.31499606e-01, -1.36443436e-01, -4.68113363e-01,
          -2.48743538e-02, 6.02251142e-02, -2.96334401e-02,
          -6.22669011e-02, -2.13753849e-01, -7.97257423e-02,
          1.99242923e-02, -2.68094748e-01, -2.96228796e-01,
          5.32515384e-02, -8.56299512e-03, 1.12182803e-01,
          -7.11782649e-03, 8.64480659e-02, 2.73900449e-01,
          -4.62567396e-02, -3.21170241e-01, -1.75403580e-01,
          7.44950324e-02, 1.06744900e-01, 1.20367840e-01, 6.45550415e-02,
          1.30714923e-01, 1.62488371e-02, 4.27883267e-02,
          -1.48834139e-01, -5.48387133e-02, 1.34302512e-01,
          -1.19332686e-01, 1.93337526e-03, 6.14512749e-02,
          -3.22514400e-02, 1.50616840e-01, 3.94706279e-01,
          -1.39309078e-01, 8.07411149e-02, 1.37424797e-01,
          6.87243193e-02, 2.06036881e-01, 1.65521771e-01, 2.18464911e-01,
          2.11877525e-01, -1.03227451e-01, -1.50954634e-01,
          3.27695459e-01, 2.85487652e-01, 2.27845103e-01, 1.82888493e-01,
          8.00905973e-02, -2.41452418e-02, -5.55178784e-02,
          3.89458016e-02, -7.03631155e-03, 2.22196266e-01,
          1.27953738e-01, -1.54905552e-02, 5.06567620e-02,
          4.03937437e-02, 7.22125322e-02, 5.72191067e-02, 6.86169043e-02,
          -4.34844643e-01, -6.68982565e-01, -2.96946734e-01,
          -4.56952602e-02, 1.09625138e-01, 5.13924882e-02,
          5.48390895e-02, -1.04988851e-01, 3.28012645e-01,
          -2.06238255e-01, -4.66204852e-01, -1.07257888e-01,
          2.16171723e-02, -8.18271115e-02, -6.55504763e-02,
          -2.51908779e-01, -8.40640366e-02, 2.94577628e-01,
          -7.85696283e-02, -2.57021666e-01, -2.17262283e-01,
          -1.30820632e-01, -2.89357901e-01, -1.71090424e-01,
          -1.02034718e-01, -6.39837086e-02, 7.75439814e-02,
          -2.36053273e-01, -1.91514909e-01, 6.98224157e-02,
          2.55252328e-02, 1.24975488e-01, 7.11467937e-02, 1.58369645e-01,
          1.16236456e-01, 1.34961814e-01, -1.90928057e-01,
          -1.01748794e-01, 7.02100843e-02, 2.31348490e-03,
          9.58806835e-03, 4.22008336e-02, -4.21383791e-02,
          1.25693187e-01, 3.00455511e-01, -9.08576921e-02,
          -4.14468385e-02, -1.14525657e-03, -1.39091432e-01,
          2.22272705e-02, -1.23244248e-01, -7.45613351e-02,
          -9.52878147e-02, -6.05779476e-02, -1.57843992e-01,
          2.90509760e-01, 3.11812848e-01, 2.88871735e-01, 1.23712741e-01,
          1.02688149e-01, -3.65644544e-02, 5.23387045e-02,
          1.01875708e-01, -4.97867614e-02, 1.63585454e-01,
          7.61337206e-02, -2.65449081e-02, 2.58109029e-02,
          2.34112758e-02, 4.38985489e-02, 1.08079150e-01, 2.16193900e-01,
          3.81312333e-02, 1.05037034e-01, -2.92789796e-03,
          -1.41332075e-01, 9.06923488e-02, 1.12207316e-01,
          6.14613201e-03, 2.10459568e-02, 4.42874163e-01,
          -2.36986116e-01, -4.12688673e-01, -6.57465458e-02,
          8.85706991e-02, -8.40352252e-02, -6.13607317e-02,
          -2.31321096e-01, -3.87294032e-02, 2.50153393e-01,
          -1.38394728e-01, -3.35886389e-01, -3.00148964e-01,
          -3.03213838e-02, -2.37996548e-01, -1.54027462e-01,
          -1.17288090e-01, -8.38734135e-02, 8.06814283e-02,
          2.57284604e-02, -2.09088430e-01, -1.94154158e-01,
          -6.20776750e-02, -3.46623957e-01, -3.52989227e-01,
          -4.30365264e-01, -2.24554509e-01, 3.00741047e-01,
          -1.72833547e-01, -4.80953157e-02, 1.17263287e-01,
          1.04611807e-01, 6.60089180e-02, 3.54539566e-02,
          -1.16983545e-03, 1.18321195e-01, 2.23964438e-01,
          -1.38145000e-01, -9.91552398e-02, 1.06414687e-02,
          -5.80214746e-02, 4.29457240e-02, -1.09761186e-01,
          -5.26099429e-02, -7.56603703e-02, 3.63207221e-01,
          3.51406261e-02, -6.43384233e-02, 8.48889947e-02,
          1.67718947e-01, -2.72051662e-01, -5.70878759e-03,
          -1.18488446e-01, -1.30228251e-01, 1.41262516e-01,
          -6.40576286e-03, 1.60589069e-01, 4.89976183e-02,
          3.11012007e-02, 2.39293575e-02, -5.55045307e-02,
          -1.79894455e-02, 1.18111394e-01, 1.84968218e-01,
          2.02258136e-02, 4.01538201e-02, 2.73906179e-02,
          -1.72663722e-02, 7.16184899e-02, 1.06362641e-01,
          -1.00205876e-02, -1.18482970e-02, 3.20614845e-01,
          -1.17107190e-03, 1.20624304e-01, 1.09587885e-01,
          1.06534481e-01, 4.27307189e-02, 1.49037046e-02, 4.97782193e-02,
          1.70620576e-01, 2.88547188e-01, -1.29849851e-01,
          -3.22036415e-01, -2.80217528e-01, 4.83560897e-02,
          -1.54651776e-01, -1.32617667e-01, -8.20763409e-02,
          -4.71848883e-02, -4.43397909e-02, -1.57690607e-02,
          -1.91331699e-01, -9.19702277e-02, 4.21841741e-02,
          -3.16393793e-01, -2.61589646e-01, -3.51238489e-01,
          -1.63162768e-01, 8.05789903e-02, -4.52497862e-02,
          -2.98672989e-02, -8.43070727e-03, -2.51046300e-01,
          -5.33015788e-01, -3.52371931e-01, -4.70362246e-01,
          -3.64918351e-01, 2.34275773e-01, -9.81798172e-02,
          -1.23680033e-01, 7.42206201e-02, -1.82531979e-02,
          1.05550848e-01, -6.62308186e-02, 2.92664766e-02,
          -2.71137571e-03, 1.86678723e-01, 6.25767633e-02,
          -5.06085381e-02, 1.43466160e-01, 1.88378632e-01,
          -2.02896044e-01, 2.52084713e-02, -1.38529494e-01,
          -2.62151390e-01, 2.10235044e-01, 1.60805270e-01,
          2.32577860e-01, 1.47119418e-01, 1.61056027e-01,
          -6.41266108e-02, -8.83881003e-02, -2.12324202e-01,
          -1.16559200e-01, 2.83222288e-01, 6.54385239e-02,
          1.47956312e-01, 9.57754031e-02, 2.16762312e-02, 1.04758814e-01,
          1.39390260e-01, 1.53443171e-02, 9.00244638e-02, 1.10633507e-01,
          1.99102554e-02, 1.84673890e-01, 1.89509869e-01, 2.75564551e-01,
          1.27509594e-01, 7.79173523e-02, 5.09679280e-02, 3.07386518e-02,
          1.01505414e-01, 5.70998043e-02, 2.78343726e-02, 1.02965660e-01,
          1.30449325e-01, 1.07247598e-01, 1.20201185e-01,
          -5.14251590e-02, 1.50545225e-01, -6.88005611e-02,
          3.29818539e-02, -1.42576257e-02, 1.52558824e-02,
          2.59811450e-02, -3.01170170e-01, -2.42893755e-01,
          -3.37616920e-01, -5.88423908e-02, 6.13325601e-03,
          2.18217950e-02, 5.75256459e-02, 2.47982163e-02,
          -2.01488733e-01, -4.19237584e-01, -2.51209468e-01,
          -3.68763894e-01, -2.93702960e-01, 9.67897549e-02,
          -2.80385488e-03, -1.46559268e-01, -7.85617009e-02,
          -1.30781725e-01, -1.02905013e-01, -2.63377637e-01,
          -1.54545799e-01, -1.74321070e-01, 1.30180314e-01,
          1.06448010e-01, 2.30827592e-02, 2.00321034e-01, 1.14020474e-01,
          -2.22956359e-01, -1.53931603e-03, -2.41961151e-01,
          -3.33332270e-01, 7.82025009e-02, 1.91248298e-01,
          2.76199102e-01, 1.67072564e-01, 1.54603049e-01,
          -3.01247444e-02, -1.04449615e-01, -1.88808396e-01,
          -1.03626519e-01, 1.74687505e-01, 1.49205983e-01,
          1.14016876e-01, 1.40088499e-01, 4.98992428e-02,
          -1.54520884e-01, -7.76924789e-02, -1.51740015e-01,
          -1.23318039e-01, -6.39431104e-02, 2.57577468e-02,
          3.01712185e-01, 2.31661648e-01, 1.67919770e-01, 1.98328003e-01,
          8.27083737e-02, -6.04479155e-03, -1.52498513e-01,
          -1.38456945e-03, 1.97356030e-01, 8.12561139e-02,
          1.29163682e-01, 1.13986559e-01, 1.05439276e-01, 1.06784306e-01,
          -8.04611668e-02, 1.84801057e-01, 3.19806457e-01,
          1.01389758e-01, 1.73544362e-01, 1.15473367e-01, 1.56652465e-01,
          1.01779975e-01, 5.41789867e-02, -2.31883958e-01,
          -9.69076380e-02, 4.52259220e-02, 2.53952537e-02,
          -2.18014163e-03, -2.82829553e-02, -3.61083031e-01,
          -4.15022731e-01, -2.45101169e-01, -3.49663198e-01,
          -2.23095179e-01, 1.58387180e-02, -5.65065956e-03,
          -2.28189021e-01, -1.18883193e-01, -1.69787362e-01,
          -4.64249700e-02, -1.82459146e-01, -8.16036165e-02,
          -5.41315898e-02, 8.28935206e-02, 1.15170248e-01,
          -8.33406970e-02, -1.63946107e-01, 7.04597086e-02,
          -2.27339733e-02, 1.29896000e-01, -1.91619858e-01,
          -1.09684430e-01, 2.30002254e-02, 1.51633188e-01,
          1.55449867e-01, 6.57820553e-02, 3.35716605e-02,
          -8.84520262e-02, -1.58832252e-01, -2.56067425e-01,
          -7.72391409e-02, 7.72747472e-02, 1.42803252e-01,
          2.09997799e-02, 7.07520097e-02, -2.38474105e-02,
          -2.07729548e-01, -1.09634474e-01, -1.36382297e-01,
          -1.07045285e-01, 1.61244869e-01, 1.65188774e-01,
          1.94063783e-01, 4.05090787e-02, -3.16353627e-02,
          4.12775241e-02, 1.35968253e-01, -1.12430722e-01,
          7.30655640e-02, 8.12269398e-04, 2.00225994e-01, 2.43447460e-02,
          6.62294999e-02, 7.93062225e-02, 5.74188866e-02, 7.95672834e-02,
          -1.71088248e-01, 1.27589151e-01, 1.93061918e-01,
          6.33277595e-02, 1.11551888e-01, 2.88069900e-02,
          -6.22228719e-02, 1.60504896e-02, 3.48273143e-02,
          -2.35177457e-01, -1.48467094e-01, 5.72519610e-03,
          1.70891523e-01, 2.70552337e-01, 2.04524010e-01, 7.30160549e-02,
          1.33724377e-01, 6.89008534e-02, 9.97004285e-02, 2.14982346e-01,
          9.51320603e-02, 6.66118637e-02, -4.37255464e-02,
          6.07877448e-02, 1.58050373e-01, -6.97726086e-02,
          -1.02967985e-01, 1.65785197e-02, 1.09899014e-01,
          2.33921688e-03, -6.19151779e-02, 4.35763150e-02,
          -1.40129663e-02, 1.01961419e-01, -3.75653908e-04,
          9.29827709e-03, 2.13367566e-02, -1.18525818e-01,
          7.82032683e-02, -1.92454338e-01, -1.24430701e-01,
          2.02959865e-01, 6.42011762e-02, 1.33165821e-01,
          -3.31123322e-02, 8.36917907e-02, -5.82437925e-02,
          -1.61587566e-01, 4.99453433e-02, 1.17710873e-01,
          -1.68321565e-01, -1.04610659e-01, -3.60164344e-02,
          7.08215162e-02, 1.49383143e-01, -1.57203879e-02,
          -2.03522488e-01, -3.21922243e-01, -9.93187204e-02,
          1.83148593e-01, -1.44454718e-01, 4.48492877e-02,
          2.10119039e-02, 3.06380801e-02, -8.04726854e-02,
          -1.25949411e-02, -1.98817223e-01, -4.74150740e-02,
          5.74681833e-02, -1.61633968e-01, 3.05709429e-02,
          9.76107717e-02, 1.21956497e-01, -1.08581759e-01,
          -3.14944565e-01, 2.94199288e-01, 8.98751989e-02,
          6.14871159e-02, 5.79180419e-02, 4.62534651e-02, 6.44861236e-02,
          -8.01600367e-02, -1.71034843e-01, 5.53251468e-02,
          -9.83275324e-02, 8.45084116e-02, 1.21911436e-01,
          -2.63693393e-03, -1.35596171e-01, 1.92299962e-01,
          1.63890004e-01, -2.82499269e-02, -1.75718412e-01,
          -3.88136692e-02, 2.09742598e-03, -1.49867488e-02,
          5.59322676e-03, -6.92378879e-02, 2.42088549e-02,
          -1.58931091e-02, -4.92974222e-02, -8.91513526e-02,
          -2.67436624e-01, -8.07679743e-02, -9.62733757e-03,
          6.01609126e-02, -1.28947170e-02, 4.48234789e-02,
          -7.23462319e-03, -1.29279599e-01, -4.51659262e-02,
          -2.64569789e-01, -2.78476477e-01, 8.24455768e-02,
          9.66805145e-02, 1.37582853e-01, -5.46070701e-03,
          8.31949636e-02, 7.69338477e-03, 2.03750357e-02,
          -3.13601375e-01, -6.15843162e-02, 1.72503248e-01,
          1.97131380e-01, 1.74223170e-01, 6.57432526e-02, 1.40081078e-01,
          -2.06179731e-02, -6.32579550e-02, -4.52473998e-01,
          -8.97898301e-02, 2.19638899e-01, -1.71775371e-01,
          2.58888528e-02, 5.33048958e-02, 1.98519360e-02,
          -8.48374441e-02, 1.27498982e-02, -2.66490251e-01,
          -2.44078711e-02, 7.95822293e-02, -4.47883531e-02,
          8.69522542e-02, 1.14969186e-01, 1.28452420e-01, 2.51610428e-02,
          -6.17484413e-02, -2.62978077e-01, 1.95336431e-01,
          2.01025650e-01, 1.64258540e-01, 1.26423344e-01, 6.73170164e-02,
          -5.51394261e-02, -1.84540957e-01, 1.13259979e-01,
          -1.55906454e-01, 1.58308432e-01, 1.52805582e-01,
          -5.29077463e-02, -1.82033122e-01, 2.11318448e-01,
          1.71541154e-01, -2.10758559e-02, -1.39899045e-01,
          -4.11516055e-02, 1.20711997e-01, 7.14207888e-02,
          -9.47403014e-02, -4.78759706e-02, 5.52470759e-02,
          -2.68176086e-02, 2.17944961e-02, -2.90654396e-04,
          -1.12885289e-01, -3.66155803e-01, 1.14704512e-01,
          9.19020995e-02, 1.29024252e-01, 8.97850469e-02,
          -1.69305969e-02, -9.10557508e-02, -1.26848057e-01,
          -3.60268980e-01, -4.04901057e-01, -3.57833132e-02,
          -4.58598919e-02, 8.31676796e-02, -2.70396955e-02,
          9.18842033e-02, 1.45531029e-01, -1.90038219e-01,
          -4.43062335e-01, -2.24002883e-01, 3.35287601e-02,
          6.04483560e-02, 1.38404280e-01, 3.64513211e-02, 1.22342162e-01,
          -5.26326634e-02, -1.26706604e-02, -2.02072144e-01,
          -6.43312633e-02, 1.03957862e-01, -1.29502162e-01,
          6.95085339e-03, 6.72607869e-02, -9.22067314e-02,
          1.09250648e-02, 1.21525630e-01, -3.39718789e-01,
          -8.55470598e-02, 3.95136736e-02, -4.48615588e-02,
          1.34676248e-01, 1.07467070e-01, 1.28843457e-01, 5.58678173e-02,
          -1.41578525e-01, -2.64169842e-01, 1.71973750e-01,
          1.85537323e-01, 1.64228141e-01, 1.28550053e-01, 5.11736609e-02,
          -8.55499879e-02, -1.64272591e-01, -7.33213946e-02,
          -2.10079610e-01, 1.40578762e-01, 6.92986920e-02,
          -7.87766501e-02, -8.19463842e-03, 4.51900773e-02,
          1.44306896e-02, -1.01232352e-02, -4.57203984e-02,
          -8.46475810e-02, 1.73564687e-01, 7.06557482e-02,
          -2.88852751e-01, -7.62083754e-02, -8.12561193e-04,
          -4.43850085e-02, 1.50091182e-02, -3.80692333e-02,
          -1.73120350e-01, -1.44054770e-01, 6.27842024e-02,
          1.07509464e-01, 9.58931148e-02, 7.55129606e-02,
          -3.48697715e-02, -3.53685692e-02, 2.23867018e-02,
          2.15105966e-01, 1.60300016e-01, 7.08379298e-02, 3.11068326e-01,
          6.29246235e-02, 7.41861984e-02, -5.48931062e-02,
          1.06742675e-03, -1.62083596e-01, -4.27838922e-01,
          -2.83737868e-01, -3.23004602e-03, -2.40560621e-02,
          1.29447281e-01, 3.54882069e-02, 1.40839636e-01, 5.08403592e-02,
          -1.89424735e-02, -3.07216823e-01, -2.49941558e-01,
          -9.87268146e-03, -1.52750593e-02, -5.24103735e-03,
          3.15025374e-02, -1.22027993e-01, -1.38438009e-02,
          1.60043433e-01, -2.15076327e-01, -1.48046270e-01,
          -3.14855725e-02, -5.92436679e-02, -2.90564243e-02,
          -1.81592107e-01, -1.80599242e-01, -1.83496237e-01,
          -2.22925693e-01, -3.16519856e-01, 1.25355408e-01,
          2.03121364e-01, 2.20683664e-01, 6.69900700e-02, 4.24128175e-02,
          -8.68095532e-02, -1.19446799e-01, -4.82653342e-02,
          -2.25207895e-01, 9.90233123e-02, 1.52451890e-02,
          -7.07142800e-02, -2.31353212e-02, 2.12715822e-03,
          -2.62375548e-02, 1.30015723e-02, 6.22187704e-02,
          -6.35055751e-02, -4.27368246e-02, -7.30745345e-02,
          -1.40050560e-01, 9.09050927e-02, 9.36042145e-02,
          -4.93653603e-02, -1.39654055e-01, 8.07313472e-02,
          -2.58847147e-01, -9.54447389e-02, 3.82019468e-02,
          1.08796977e-01, 4.20279391e-02, 4.67275381e-02,
          -5.75270446e-04, 5.30323200e-02, 1.06588364e-01,
          1.05751731e-01, 7.66058043e-02, 4.80922535e-02, 2.76996583e-01,
          2.21898314e-02, 3.77652384e-02, -3.21866423e-02,
          2.79597007e-02, 1.53189719e-01, 7.08670840e-02,
          -9.08401608e-03, 2.52737880e-01, 2.07548449e-03,
          -9.21473373e-03, 7.52483457e-02, 1.47051821e-02,
          1.09160542e-01, 1.17726892e-01, -3.85130256e-01,
          -2.51885355e-01, -3.03135230e-03, 1.72380760e-01,
          3.34136821e-02, 2.10598372e-02, -8.88123140e-02,
          -4.61867005e-02, -6.22521201e-03, -3.11048657e-01,
          -2.65879244e-01, -3.87014337e-02, 1.44303935e-02,
          -8.85960273e-03, -1.86193630e-01, -1.87460572e-01,
          -2.14436680e-01, 8.37110505e-02, -9.70231071e-02,
          -2.71745145e-01, 2.64163818e-02, 2.88490444e-01,
          -4.15085584e-01, -7.78525174e-02, -2.12947294e-01,
          -3.45784098e-01, 6.51121372e-04, -2.15423197e-01,
          6.15105405e-02, -9.29916184e-03, 2.18520910e-02,
          -2.85598263e-02, -6.93634972e-02, -6.29847273e-02,
          5.96840717e-02, -2.80645061e-02, -1.33991674e-01,
          -9.73160788e-02, -6.55637532e-02, -1.59095265e-02,
          5.94440177e-02, 6.09094091e-02, -7.45566860e-02,
          -1.76309809e-01, 1.40380561e-01, -1.16319411e-01,
          1.19970897e-02, 5.14410622e-02, 1.07869811e-01, 8.53358209e-03,
          -2.45018508e-02, -5.66111505e-02, -6.94565549e-02,
          1.64153606e-01, 8.75637457e-02, 5.89263737e-02, 1.35016471e-01,
          2.13758022e-01, 2.44201645e-02, 4.19757441e-02,
          -2.94073764e-02, 5.29967509e-02, 8.30070451e-02,
          3.71825956e-02, 1.15686078e-02, 2.32527196e-01,
          -3.37360278e-02, -5.12176938e-03, 6.46954477e-02,
          2.04655714e-02, 5.46586961e-02, 1.40483230e-01,
          -1.59293607e-01, 1.20479532e-01, 2.96551824e-01,
          1.78776771e-01, 1.03326177e-03, 4.37866524e-02,
          -7.73456916e-02, 1.64894372e-01, 3.87325808e-02,
          -3.12400162e-01, -2.99860001e-01, -1.59594659e-02,
          -3.57759488e-03, 9.14248154e-02, -1.21209145e-01,
          -7.50408396e-02, -1.07882537e-01, -9.63169038e-02,
          -5.03950082e-02, -2.01748013e-01, 9.44525152e-02,
          1.91226259e-01, -3.07558835e-01, -3.20557915e-02,
          -2.36276463e-01, -4.17245328e-01, -6.41222820e-02,
          4.51895446e-02, 1.22534916e-01, 3.15638483e-02, 9.99392271e-02,
          -2.04049602e-01, -1.71524137e-01, -4.11952883e-01,
          -3.76285464e-01, -3.47516350e-02, -1.04764573e-01,
          -3.75812985e-02, -2.89189797e-02, -6.81755766e-02,
          4.72234860e-02, 8.70840326e-02, -5.43972217e-02,
          -5.97757213e-02, -7.78974667e-02, -1.02842264e-01,
          4.64217700e-02, 9.93077457e-02, 1.83230132e-01, 6.46517202e-02,
          9.44663770e-03, -3.02927755e-02, -1.18660338e-01,
          -9.31600779e-02, -7.82047361e-02, -1.03155579e-02,
          1.94930937e-02, 9.80165377e-02, 6.75282702e-02, 4.30072658e-02,
          -1.20501436e-01, 3.93029768e-03, 1.38031617e-01,
          1.12178102e-01, 9.64122266e-02, 3.03447366e-01, 3.10828835e-02,
          4.37635109e-02, 1.09402351e-01, 6.08235300e-02, 1.47028640e-01,
          3.53852697e-02, -1.61951169e-01, 1.47830352e-01,
          3.14732909e-01, 1.57154649e-01, 2.41555180e-02, 5.47071807e-02,
          -6.70433119e-02, 1.52037531e-01, 2.22038105e-01,
          -3.52970250e-02, 1.75620705e-01, 1.34075001e-01,
          1.18879586e-01, -9.47382450e-02, 6.18566051e-02,
          -7.07530528e-02, -1.01867363e-01, -2.61299107e-02,
          1.00676820e-01, 2.33815536e-02, 2.16588899e-01, 1.13820329e-01,
          -2.70961523e-01, -1.07211061e-03, -2.72220105e-01,
          -3.68187785e-01, -1.69249311e-01, 1.15490295e-01,
          1.68002084e-01, 1.01563923e-01, 1.41196504e-01,
          -8.31098109e-02, -1.80985183e-01, -3.07999849e-01,
          -3.05719107e-01, -4.73322608e-02, 3.58001329e-02,
          5.05759753e-02, 1.28672391e-01, -2.07378212e-02,
          -2.35470101e-01, -2.04935312e-01, -3.02041948e-01,
          -4.08493042e-01, -1.50183380e-01, -6.55731857e-02,
          1.20614961e-01, 1.63311958e-01, 1.84407026e-01, 1.27128407e-01,
          1.58064980e-02, -4.30291891e-02, -1.72385216e-01,
          -1.95898458e-01, 3.22155058e-02, -6.06584968e-03,
          6.08102158e-02, 6.82957992e-02, 7.46150017e-02, 2.83638388e-02,
          -1.26849547e-01, 9.77355540e-02, -2.13797353e-02,
          -6.24212716e-03, 2.39957590e-02, 3.31948772e-02,
          -1.28504569e-02, 5.55197857e-02, -1.84426215e-02,
          -3.57271641e-01, -2.98109710e-01, 3.26771736e-02,
          -6.62407726e-02, 1.91683531e-01, 3.88703912e-01,
          1.44087657e-01, 4.83827442e-02, 6.12650551e-02,
          -5.71027324e-02, 2.03054279e-01, 1.45854905e-01,
          6.38949424e-02, 1.88852146e-01, 1.63696781e-01, 5.02318628e-02,
          -3.32458280e-02, 9.66909751e-02, -4.37916331e-02,
          -1.87317312e-01, 2.96659153e-02, 6.44051358e-02,
          2.55137891e-01, 1.87448189e-01, -9.16135870e-03,
          2.89668459e-02, -1.60978013e-03, -8.06107968e-02,
          -1.93735257e-01, -1.39421001e-01, 1.34889290e-01,
          1.26465946e-01, 1.91688910e-02, 1.96688417e-02,
          -9.39095244e-02, -2.31690854e-01, -3.05451244e-01,
          -2.18376622e-01, 4.96153161e-02, 9.03495029e-02,
          4.57278118e-02, 9.27848518e-02, 5.35702668e-02,
          -2.16972783e-01, -1.46873474e-01, -1.98409095e-01,
          -2.10298941e-01, 9.12885815e-02, 1.51862517e-01,
          1.81412801e-01, 2.93342732e-02, 4.16221768e-02, 7.98790678e-02,
          1.50473982e-01, -1.66311309e-01, -6.50452152e-02,
          -1.50270373e-01, 1.27515979e-02, -8.70976597e-02,
          -7.53124896e-03, 3.11647286e-03, 3.78352366e-02,
          8.78174696e-03, -1.98037595e-01, 1.18497774e-01,
          2.51396019e-02, -7.50491675e-03, -1.43284537e-02,
          -1.17429753e-03, -1.28086165e-01, 2.97653694e-02,
          5.89753967e-03, -3.25808257e-01, -2.32387871e-01,
          -7.70790055e-02, 1.14685893e-01, 8.89947712e-02,
          9.73504037e-02, -2.92795543e-02, 1.01979978e-01,
          1.81940049e-02, 2.01723333e-02, 1.32947832e-01, 1.06278948e-01,
          4.95502427e-02, 1.08136579e-01, 1.41583368e-01,
          -2.09009737e-01, -2.13160262e-01, 3.70818526e-02,
          -9.29797515e-02, -3.93115401e-01, 5.25495782e-02,
          1.05923176e-01, 1.99777961e-01, 1.33187383e-01,
          -1.64157957e-01, -8.67862720e-03, 2.17863545e-02,
          -4.35068607e-02, -1.14769086e-01, 1.65255323e-01,
          1.51456892e-01, 2.53473431e-01, 3.44335347e-01,
          -6.50824308e-02, 1.87839448e-01, -5.57302684e-03,
          -2.31676072e-01, -1.64947003e-01, -1.82231888e-01,
          1.02206141e-01, 1.42778128e-01, -1.51084766e-01,
          -1.60709038e-01, -3.90699469e-02, 6.01856411e-02,
          1.60949305e-01, -7.07712770e-02, -1.75009012e-01,
          -4.40100849e-01, -1.22840494e-01, 2.31405035e-01,
          -7.70450756e-02, 2.04849131e-02, 3.57461758e-02,
          2.53248680e-02, -1.37540355e-01, -6.11377731e-02,
          -2.45829597e-01, -1.22561390e-02, 1.31754741e-01,
          -1.61845490e-01, 1.63872149e-02, 1.23236150e-01,
          1.10156059e-01, -2.03725889e-01, -3.30863893e-01,
          3.05568308e-01, 1.43597171e-01, 8.29555988e-02, 4.17872285e-03,
          5.06990030e-03, 9.68097057e-03, -1.34123370e-01,
          -1.93431929e-01, 4.06950265e-02, -1.77751213e-01,
          6.71375990e-02, 1.24532022e-01, -1.34577965e-02,
          -1.19305782e-01, 1.73498541e-01, 1.31294042e-01,
          -6.08316297e-03, -1.94760874e-01, -9.02306512e-02,
          5.79202920e-02, -1.80505756e-02, -3.04975864e-02,
          -8.27586204e-02, 2.99063511e-02, -5.76180927e-02,
          -7.36346319e-02, 3.02713603e-01, 2.67563790e-01,
          1.66003048e-01, 5.87719567e-02, -9.92320180e-02,
          1.13183267e-01, -3.83192860e-02, -5.34807295e-02,
          1.05313160e-01, -1.39816711e-03, -1.99281484e-01,
          -9.48987305e-02, -6.42052367e-02, 1.93397030e-02,
          1.89447943e-02, 1.20173663e-01, -2.13526972e-02,
          -9.90281701e-02, 2.11754113e-01, -1.75552696e-01,
          -1.14123248e-01, 5.65051995e-02, 1.78517297e-01,
          7.80849904e-02, 7.49545246e-02, 9.30949207e-03, 2.32822858e-02,
          -2.25545883e-01, -6.57353580e-01, -1.96438283e-01,
          2.21199125e-01, -2.19161943e-01, -2.58599836e-02,
          4.43431102e-02, 6.54440839e-03, -1.54542118e-01,
          -1.00232065e-01, -2.81098455e-01, -1.08385133e-02,
          1.17596291e-01, -1.20562010e-01, 6.98957294e-02,
          1.15164705e-01, 1.00910261e-01, -6.09027967e-02,
          1.19858675e-01, -2.99690962e-01, 2.18024001e-01,
          2.33578160e-01, 2.37768680e-01, 7.64540732e-02, 9.92507339e-02,
          -6.15064837e-02, -1.82749331e-01, -3.37763764e-02,
          -2.27627859e-01, 1.60573110e-01, 1.37752086e-01,
          -7.99029246e-02, -1.39169946e-01, 1.73295632e-01,
          1.32606134e-01, -5.00355288e-02, -2.45790318e-01,
          -9.62007791e-02, 1.08855829e-01, 6.39807284e-02,
          -4.59806360e-02, -4.93307970e-02, 4.01805006e-02,
          -6.74361661e-02, -5.85798323e-02, -1.58324104e-03,
          -1.75652608e-01, -2.14238644e-01, 8.68269056e-02,
          4.26654592e-02, 1.31432742e-01, 7.94610456e-02,
          -1.08393077e-02, -9.10107940e-02, -2.39770096e-02,
          -2.13386953e-01, 1.07058138e-01, -5.85371777e-02,
          1.15651295e-01, 5.30237630e-02, 1.36796474e-01, 3.75115946e-02,
          -1.99471060e-02, 5.26524000e-02, -1.73570544e-01,
          1.89495943e-02, 4.43976745e-02, 2.16577247e-01, 7.34638199e-02,
          5.50612397e-02, -3.09374873e-02, -1.22803776e-02,
          -1.81754807e-03, 7.17354715e-02, 9.71411392e-02,
          8.47255215e-02, 2.04616204e-01, 1.41558200e-01,
          -4.60389927e-02, -1.03356548e-01, -4.52241115e-02,
          -5.26610650e-02, -3.02765042e-01, -5.59701286e-02,
          2.77464949e-02, -1.41324863e-01, 1.11812167e-01,
          1.10952467e-01, 8.35673138e-02, -7.96415061e-02,
          -8.68112519e-02, -3.55824441e-01, 1.59844980e-01,
          1.75875083e-01, 1.73979282e-01, 5.29733822e-02, 5.29862046e-02,
          -1.10112570e-01, -2.50203192e-01, -6.49149418e-02,
          -2.32477278e-01, 9.30323303e-02, 9.41882133e-02,
          3.93468477e-02, 8.28231405e-03, 1.01664238e-01, 4.57022041e-02,
          -5.51321916e-02, -3.03534716e-01, -1.57642692e-01,
          1.10579662e-01, 5.72493263e-02, -1.78747416e-01,
          -1.21259436e-01, -1.71910115e-02, -7.96052441e-02,
          -8.51771906e-02, -8.67657214e-02, -2.45336235e-01,
          -2.22543359e-01, 4.16694134e-02, 6.92325160e-02,
          7.63809979e-02, 4.25447673e-02, -7.33219981e-02,
          -9.59429890e-02, 4.94576097e-02, 1.35797292e-01,
          2.62620114e-03, -3.06074377e-02, 2.21369863e-01,
          -1.87804992e-03, 3.94157395e-02, -5.79899438e-02,
          -1.36892535e-02, -4.93623167e-02, -2.49789685e-01,
          1.90672837e-02, 1.21782079e-01, 1.66953713e-01, 2.02343147e-03,
          6.25100732e-02, -3.40695940e-02, 2.13224138e-03,
          -6.71720356e-02, -7.49406517e-02, 2.59805396e-02,
          2.85884608e-02, 1.93056926e-01, 1.26254812e-01,
          -1.00743599e-01, -6.70039356e-02, -7.42833838e-02,
          8.04360062e-02, 1.41411990e-01, 2.67787371e-02, 2.28095517e-01,
          2.99407244e-01, 1.19217746e-01, 1.41264368e-02, 4.81812619e-02,
          -2.34996155e-01, -2.50430316e-01, -4.72096235e-01,
          1.08879201e-01, 1.50922045e-01, 1.86628401e-01,
          -2.85737626e-02, 7.18116807e-03, -1.17746025e-01,
          -2.30315194e-01, -1.38716161e-01, -2.63958126e-01,
          1.51331881e-02, 1.38839392e-03, 4.74203266e-02,
          -3.22397910e-02, -3.33741792e-02, -3.12606990e-02,
          -1.04935341e-01, 6.59774244e-02, -1.56667799e-01,
          -1.30122080e-01, -1.31700262e-01, -5.17799519e-02,
          1.42340422e-01, 1.07164048e-01, -4.93251868e-02,
          -2.81460106e-01, -5.85227683e-02, -3.65320623e-01,
          -2.25317895e-01, -1.30555900e-02, 1.03334077e-01,
          1.67448688e-02, 2.19326988e-02, -7.86829814e-02,
          -8.47479180e-02, 6.91479743e-02, 5.80239668e-02,
          -2.07800213e-02, -2.41419710e-02, 2.41873384e-01,
          -3.65130156e-02, -1.03837559e-02, -5.08778356e-02,
          -2.67202388e-02, -1.61096696e-02, 2.85398937e-03,
          -5.66253290e-02, 1.56758428e-01, 7.41511360e-02,
          -7.71276653e-02, 4.86723594e-02, -2.49900557e-02,
          6.88361377e-03, -3.04818135e-02, -1.21640258e-01,
          1.08831692e-02, 3.52456830e-02, 2.35080302e-01, 1.53784856e-01,
          -1.56279951e-01, -1.00066680e-02, -9.05319005e-02,
          1.64477676e-01, 5.32522909e-02, -5.02555817e-02,
          1.51361331e-01, 2.62955666e-01, 4.52419855e-02, 8.11156631e-03,
          4.01814021e-02, -1.72672763e-01, 8.00664816e-03,
          6.37100637e-02, 1.66841131e-02, 8.44243392e-02, 2.93626096e-02,
          -4.95137013e-02, 3.94953229e-02, -4.33100536e-02,
          -2.90132724e-02, -1.27697051e-01, -2.75758356e-01,
          -5.55525068e-03, -2.79065501e-02, 8.96161869e-02,
          -7.24658743e-02, -1.31909326e-01, -8.10834467e-02,
          -8.87725204e-02, -2.14654043e-01, -2.33463675e-01,
          -2.21693292e-01, -1.55740723e-01, -7.68638542e-03,
          5.58577701e-02, 5.57460636e-02, -1.08741492e-01,
          -3.25108141e-01, 3.27711888e-02, -2.26964280e-01,
          -5.35117537e-02, 4.82274331e-02, 1.74330905e-01,
          -3.06731965e-02, -4.86924723e-02, -1.30295441e-01,
          -2.51194566e-01, 1.29537165e-01, 5.35341017e-02,
          -6.66246377e-03, 3.85272056e-02, 2.14797243e-01,
          -4.59068269e-02, -2.14392156e-03, -6.38903081e-02,
          -1.10117663e-02, -6.26531988e-02, -2.45540626e-02,
          -4.41224389e-02, 1.40223041e-01, 1.57120645e-01,
          -6.97660670e-02, 2.47238614e-02, -3.79870124e-02,
          -4.54998650e-02, 1.12109035e-02, -1.61715388e-01,
          5.10762185e-02, 2.31467530e-01, 2.20430389e-01,
          -2.94893645e-02, 1.50610330e-02, -1.20206520e-01,
          9.62454453e-02, 1.96161538e-01, -1.23867188e-02,
          -1.21797875e-01, 1.36983112e-01, 2.30791405e-01,
          1.89152285e-02, 3.23837362e-02, 5.89946248e-02,
          -6.87781200e-02, -1.96308829e-02, 8.74189194e-03,
          -9.17870328e-02, -4.61470056e-03, 6.92295283e-02,
          -7.30972365e-02, 2.69867871e-02, -1.29774902e-02,
          -1.19850049e-02, -2.04000659e-02, -1.66333362e-01,
          6.74477890e-02, 3.18142213e-02, 1.79137707e-01,
          -3.16363834e-02, -2.85560042e-02, -4.18453757e-03,
          -1.07036412e-01, -2.62554616e-01, -2.04002395e-01,
          -1.20232604e-01, -8.03191289e-02, -4.52720150e-02,
          4.96573597e-02, 8.48650262e-02, -6.86538443e-02,
          -2.00950429e-01, -2.28798822e-01, -1.85611993e-01,
          -6.37724400e-02, 7.94440731e-02, 1.57951981e-01,
          1.20483302e-02, -2.76219659e-02, -9.83593985e-02,
          -2.62961239e-01, -1.46865189e-01, -1.02568343e-02,
          3.50261331e-02, -4.13480401e-02, 5.25348634e-02,
          4.40353751e-02, 1.94022420e-03, -1.79943889e-01,
          -1.99641421e-01, -1.13802850e-02, 3.83130834e-02,
          8.62762239e-03, 1.87969714e-01, 5.84205613e-02,
          -2.98602618e-02, 5.36190718e-02, -1.75049081e-02,
          5.75856157e-02, -9.44397822e-02, -1.88676313e-01,
          5.87264746e-02, 2.33108640e-01, 1.54704288e-01,
          -1.05795600e-02, 2.28216480e-02, -1.35584325e-01,
          7.53356963e-02, 1.66841298e-01, -7.22142532e-02,
          1.59156203e-01, 3.00453324e-02, 3.95053886e-02,
          -1.13296203e-01, 2.32707337e-02, -1.38349786e-01,
          -2.07994387e-01, 1.30154714e-01, 6.62410259e-02,
          -3.11059412e-02, 8.27042237e-02, 1.34934083e-01,
          -5.23263291e-02, 6.79779723e-02, 3.69610973e-02,
          -5.37975784e-03, 6.01398107e-03, -9.77383554e-02,
          1.59074023e-01, 1.38039112e-01, 2.57857263e-01, 1.70280244e-02,
          -8.49461125e-04, 3.82896401e-02, 6.35175183e-02,
          -1.20596074e-01, -6.80719987e-02, -2.05571741e-01,
          1.35158330e-01, 2.12407745e-02, -1.47681653e-01,
          -4.43268344e-02, -1.53339282e-01, 2.00987026e-01,
          -2.65299410e-01, -1.22339256e-01, -4.03494611e-02,
          1.90462723e-01, 1.13539733e-01, 1.02337375e-01,
          -1.64585486e-02, -7.90968612e-02, -2.86763817e-01,
          -3.22386384e-01, -2.47260369e-03, -1.34188170e-02,
          3.05284485e-02, 1.72628481e-02, 4.97492068e-02,
          -9.04577971e-03, -1.73833534e-01, -2.96202581e-02,
          -1.28464639e-01, -4.70797792e-02, -1.70808081e-02,
          -2.46084481e-02, -1.87705994e-01, 4.88715284e-02,
          -3.81495357e-02, -4.05024946e-01, -4.54987437e-01,
          -1.00336388e-01, -1.18384860e-01, 1.03581101e-01,
          3.10094476e-01, 1.40978932e-01, 1.47781204e-02, 3.32561433e-02,
          -1.08851574e-01, 1.46418512e-01, 2.46825647e-02,
          -1.22193375e-03, 8.51572379e-02, 6.89941794e-02,
          1.99144837e-02, -5.06341904e-02, 7.29420409e-02,
          -8.68318900e-02, -2.19901115e-01, -7.82059506e-02,
          -1.99857801e-02, 1.55720800e-01, 1.05552085e-01,
          -1.61850244e-01, -2.72281631e-03, -5.74101806e-02,
          -1.41751155e-01, -2.98979998e-01, 6.02871440e-02,
          -1.83554403e-02, 2.84703791e-01, 2.54615963e-01,
          3.13150972e-01, 7.64703602e-02, 2.94424612e-02, 7.68520534e-02,
          1.42232329e-01, -1.69961795e-01, -3.47725898e-02,
          -3.81380580e-02, 2.01682881e-01, 1.92025393e-01,
          -5.98221570e-02, 8.12716410e-03, -5.62933572e-02,
          7.57291317e-02, 1.29046347e-02, -1.90822557e-01,
          1.15604050e-01, 2.29765654e-01, 1.36776313e-01,
          -3.16679105e-02, -3.03703453e-02, 1.63172185e-02,
          -4.53106277e-02, -2.25618899e-01, -1.33314403e-02,
          -9.40219015e-02, -3.78543115e-03, 3.88455973e-03,
          2.29863990e-02, -1.42385736e-02, -2.09108680e-01,
          5.74490763e-02, -2.99285445e-03, -1.86795853e-02,
          -2.48106383e-02, -2.45007910e-02, -1.97614864e-01,
          3.59756909e-02, 1.62645839e-02, -3.64927083e-01,
          -2.88834959e-01, -1.26254290e-01, 1.42896861e-01,
          9.78774484e-03, 4.21183631e-02, -3.05436663e-02,
          1.37072638e-01, 2.49287579e-02, -1.67735368e-02,
          2.92582382e-02, 5.68627901e-02, -5.79464948e-03,
          2.96184868e-02, 4.69115935e-02, -6.60427138e-02,
          -1.42418161e-01, 3.42484415e-02, -1.09610081e-01,
          -2.89789647e-01, -1.84354410e-02, 3.65009494e-02,
          1.13263860e-01, 9.73411798e-02, -2.06091940e-01,
          -4.87260381e-03, -2.58736871e-03, -6.36013448e-02,
          -1.33695573e-01, 1.35721862e-01, 1.37724787e-01,
          2.06298918e-01, 2.26090640e-01, -1.01157196e-01,
          2.09795162e-01, -5.62053686e-03, -2.30943814e-01,
          -2.57957995e-01, -1.45637855e-01, -1.15114562e-01,
          -2.61001140e-02, 1.46715209e-01, 2.94623345e-01,
          -3.67862582e-02, 7.61005655e-03, -7.81997759e-03,
          5.25321141e-02, 2.93760430e-02, -1.13944456e-01,
          9.74917933e-02, 2.16752887e-01, 2.03468382e-01, 1.13671292e-02,
          1.82796326e-02, 3.67232449e-02, 1.69908965e-03,
          -2.30357200e-02, -2.54327923e-01, 1.69793904e-01,
          2.31478605e-02, -1.21591859e-01, -7.14986958e-03,
          -4.26010117e-02, 1.14177756e-01, 9.32482332e-02,
          -3.34101498e-01, 3.29826593e-01, 2.38131881e-01,
          1.41675115e-01, -4.18743864e-02, 2.44729407e-02,
          -1.89659074e-02, -1.78022876e-01, -2.47633517e-01,
          -2.08206549e-02, -1.73119470e-01, 1.84318677e-01,
          1.95776492e-01, -2.18602177e-02, -1.44367874e-01,
          1.98021665e-01, 1.25233918e-01, -1.59696415e-02,
          -1.73042372e-01, -5.49276099e-02, 1.32146433e-01,
          -9.89846326e-03, -1.80023745e-01, -8.88176784e-02,
          7.31978100e-03, -1.24171242e-01, -1.37719348e-01,
          9.67585966e-02, 2.54333287e-01, 8.32816884e-02,
          -6.73508644e-03, -2.46789351e-01, 7.24596232e-02,
          6.83260709e-03, -4.54328731e-02, -1.73113290e-02,
          -4.03721482e-02, -2.50522047e-01, -2.02025063e-02,
          -9.91108492e-02, -1.32991359e-01, 2.11742781e-02,
          1.04202837e-01, -1.64456442e-02, -1.29097581e-01,
          1.58572525e-01, -2.23426044e-01, 7.25848749e-02,
          9.71610751e-03, 8.23612213e-02, 8.81438777e-02, 7.95616508e-02,
          -7.54921092e-03, -4.81166504e-03, 6.20262921e-02,
          3.15793068e-03, -7.10015446e-02, 1.22993432e-01,
          -2.01878428e-01, -3.84091847e-02, 2.65384354e-02,
          -6.40633777e-02, -1.83761343e-01, 4.57655638e-02,
          3.27904187e-02, 1.95137206e-02, -1.13017656e-01,
          -8.99938047e-02, 1.92128308e-02, -4.54921946e-02,
          -1.57238543e-02, 4.41193543e-02, 4.01909322e-01,
          4.66313474e-02, 1.57128081e-01, -2.48154521e-01,
          3.24062146e-02, -9.34324712e-02, 1.12417661e-01,
          -6.99210018e-02, 2.38864142e-02, -1.17769420e-01,
          -1.65183365e-01, 2.82043248e-01, 2.17687696e-01,
          -9.68281925e-02, -1.57396108e-01, 1.45967752e-01,
          1.12129360e-01, -6.25576898e-02, -2.21011505e-01,
          -5.24088591e-02, 1.65256783e-01, 7.79977068e-02,
          -1.85065389e-01, -8.03792849e-02, 1.94955189e-02,
          -1.02864407e-01, -1.52950019e-01, 7.44852377e-03,
          -1.87603265e-01, -1.45789683e-01, 4.83369045e-02,
          -5.93522564e-02, 9.42499638e-02, 6.66933805e-02,
          -9.24325362e-03, -9.69746783e-02, -9.87182558e-02,
          -3.41554433e-01, 6.77454248e-02, -1.03040442e-01,
          -1.48059621e-01, 7.96209276e-03, 1.08438663e-01,
          -9.82718915e-03, -8.68415162e-02, -9.00612846e-02,
          -2.11043030e-01, 6.85525984e-02, -1.54033280e-03,
          1.06922977e-01, 5.19068539e-02, 6.16086684e-02,
          -2.99768094e-02, -4.08117138e-02, -3.74050069e-05,
          8.78395960e-02, 9.16946903e-02, 6.29986897e-02, 1.17373332e-01,
          9.66986343e-02, -4.94003892e-02, -3.15542892e-02,
          -6.44875318e-02, -8.87339115e-02, 2.52911840e-02,
          4.80671376e-02, -2.03685444e-02, -1.64716735e-01,
          -3.26718912e-02, -7.30826259e-02, -4.25051637e-02,
          1.45605341e-01, 6.50099292e-02, -1.33788347e-01,
          7.44262263e-02, -8.98046792e-02, 1.60194933e-01,
          -5.01078516e-02, 1.02464341e-01, -4.11517248e-02,
          3.26505639e-02, 6.17256351e-02, -2.18918145e-01,
          1.53833643e-01, 2.71765850e-02, 8.81822184e-02, 1.91104189e-01,
          1.38633683e-01, -1.84712671e-02, 1.09663032e-01,
          -2.74599314e-01, -7.26950839e-02, 1.44292220e-01,
          1.07497625e-01, -2.64620572e-01, -1.48800179e-01,
          -1.50101871e-04, -7.23515972e-02, -1.50620878e-01,
          -5.37764728e-02, -2.36126691e-01, -1.89651877e-01,
          7.37745464e-02, -5.16895503e-02, 4.97850813e-02,
          2.64064856e-02, -7.26188272e-02, -1.06975257e-01,
          7.84903988e-02, 1.92169383e-01, 2.15109233e-02,
          -5.67873754e-02, 1.14734337e-01, -1.22837713e-02,
          5.65673374e-02, -2.50042640e-02, -6.66620657e-02,
          -2.38710001e-01, -3.20617884e-01, 1.10519258e-02,
          -4.56582084e-02, -9.31586027e-02, -4.16192599e-02,
          3.51709351e-02, -3.42520066e-02, -5.25009632e-02,
          -9.83885750e-02, -2.72709522e-02, 4.21563387e-02,
          1.51140848e-02, 9.74701121e-02, 7.90236816e-02,
          -8.92875344e-02, -2.55786665e-02, -8.71392861e-02,
          6.38364330e-02, 1.16626263e-01, -3.24912630e-02,
          1.50099069e-01, 1.22969829e-01, 7.62720704e-02,
          -1.65292516e-03, 4.12917472e-02, -2.07669526e-01,
          -1.78865041e-03, -2.71591634e-01, 9.23072770e-02,
          -7.10860789e-02, 1.76278904e-01, -1.18794225e-01,
          1.06691994e-01, -3.60701308e-02, -4.10751812e-02,
          1.25983581e-02, -2.41000593e-01, 8.97563249e-02,
          1.04331067e-02, 8.02907497e-02, 1.09605990e-01, 9.99829397e-02,
          -4.37654741e-02, 1.37120441e-01, 1.28434643e-01,
          9.77576822e-02, 2.02124462e-01, 1.53375372e-01, 4.36119065e-02,
          -7.05103353e-02, 5.89030944e-02, 5.76635078e-02,
          1.46755964e-01, -1.20105192e-01, -3.29128921e-01,
          -2.65627325e-01, -5.83709870e-03, -6.57100454e-02,
          8.83916952e-03, -2.98245274e-03, -1.10455982e-01,
          -1.32236555e-01, -4.26231474e-02, 1.01400629e-01,
          -3.33652385e-02, -4.50975373e-02, 1.08900607e-01,
          -5.53263985e-02, -1.08247185e-02, -5.58251068e-02,
          -1.12745240e-01, -2.61944383e-02, -1.32026803e-02,
          -3.31975557e-02, 1.10358022e-01, -5.47410585e-02,
          -9.38814282e-02, 3.72503623e-02, -3.35452072e-02,
          1.82903279e-02, -1.36490092e-01, -1.72695607e-01,
          -9.56841838e-03, -3.81951854e-02, 8.49064514e-02,
          8.18054453e-02, -1.38480529e-01, -6.29397389e-03,
          -1.25372231e-01, 6.72179228e-03, 2.46758144e-02,
          -1.16658203e-01, 1.03395157e-01, 1.00649960e-01,
          1.49865635e-02, -3.69461998e-02, 8.89756158e-03,
          -2.02834293e-01, -4.39747199e-02, 5.74258808e-03,
          -7.75165632e-02, -1.22769596e-02, -5.28924055e-02,
          -5.10371700e-02, 3.58837633e-03, -9.56682935e-02,
          -1.63130969e-01, 4.23494466e-02, -3.14255267e-01,
          -2.63112690e-02, 1.81065139e-03, 1.43548727e-01,
          6.62861690e-02, 8.49247575e-02, -5.69532113e-03,
          1.48334265e-01, 1.16262913e-01, -4.38121744e-02,
          1.29375234e-01, 1.35681391e-01, 9.47157368e-02,
          -1.31064340e-01, 3.57065126e-02, -1.55636705e-02,
          1.76907003e-01, 2.59938389e-01, 9.04602185e-02,
          -1.15744799e-01, -1.06873773e-01, -2.16688868e-02,
          3.17740906e-03, 1.78269818e-01, 6.53386936e-02, 1.94563285e-01,
          -7.01884404e-02, 9.78164598e-02, -5.49504049e-02,
          -2.68026032e-02, 1.54812768e-01, -5.47696762e-02,
          1.08763122e-03, -7.66116008e-02, -5.90792485e-02,
          -2.13778213e-01, -8.12386647e-02, -3.45355906e-02,
          1.12997353e-01, -1.64223351e-02, -1.08604535e-01,
          -8.19978397e-03, -7.09815100e-02, -1.20639831e-01,
          -8.84292796e-02, -1.53358355e-01, 3.62024456e-02,
          2.87502646e-01, 9.13386419e-02, -6.91378023e-03,
          2.53993720e-02, -1.38691008e-01, 7.48661086e-02,
          -2.14098655e-02, -1.78795848e-02, -1.36892438e-01,
          1.35601819e-01, 9.38875303e-02, 1.74331162e-02,
          -1.80293862e-02, 3.02902162e-02, -1.44778937e-01,
          -1.76045924e-01, -9.04554054e-02, -1.45059779e-01,
          -4.83327284e-02, -5.55924289e-02, -8.24885964e-02,
          -1.27972867e-02, -6.82071596e-02, -1.47729680e-01,
          -8.94383118e-02, -1.68136701e-01, 1.04627192e-01,
          2.64118854e-02, 6.42127767e-02, -2.83382833e-02,
          -6.56189546e-02, -3.64097441e-03, -4.59932499e-02,
          1.10236287e-01, -6.22770190e-02, 1.14935070e-01,
          1.60950333e-01, 1.65873185e-01, -1.18859522e-01,
          4.88367043e-02, 7.96070904e-04, 1.75824523e-01, 1.01363458e-01,
          1.09327853e-01, -1.84159860e-01, -1.84464723e-01,
          3.49564152e-03, -4.38734069e-02, 1.81842461e-01,
          5.39291017e-02, 1.44106358e-01, 8.90383869e-02, 1.11446433e-01,
          -8.47079046e-03, -1.80166841e-01, -4.42299917e-02,
          -1.78552251e-02, -2.05958858e-02, -1.13427036e-01,
          9.22718868e-02, -2.35117421e-01, -2.74331570e-02,
          7.03454949e-03, 1.33078843e-01, -4.77072150e-02,
          -7.51930103e-02, 2.10620929e-02, -6.02005310e-02,
          -2.50738934e-02, -2.29929984e-01, -1.94803804e-01,
          2.87627578e-02, 2.21076205e-01, 5.48396371e-02,
          -7.08755897e-03, 1.83906332e-02, -1.67380482e-01,
          7.45990202e-02, 1.27270088e-01, -3.28212790e-02,
          1.07760869e-01, 7.10516470e-03, 1.68886513e-03,
          -8.35684314e-02, 9.26364213e-02, -1.93490759e-01,
          -2.83065796e-01, -7.23072067e-02, 1.04855243e-02,
          -1.17602184e-01, 2.72601563e-02, -3.35259698e-02,
          -8.06137547e-02, 2.42092106e-02, -3.21612172e-02,
          -1.33987129e-01, -1.33943617e-01, -1.27750829e-01,
          1.41977832e-01, 6.09827377e-02, 9.36235934e-02,
          -1.03798006e-02, -5.27374111e-02, 1.55715989e-02,
          7.68975616e-02, -2.47424647e-01, -3.45954672e-02,
          -1.54327661e-01, 9.54608545e-02, 9.85760614e-03,
          -1.50539786e-01, -5.74138500e-02, -1.56002536e-01,
          8.75846073e-02, 9.47575122e-02, 1.62037015e-01,
          -1.82178557e-01, -9.26975310e-02, 1.70136243e-01,
          1.41853467e-02, 2.04610288e-01, 4.33296598e-02, 1.19602546e-01,
          8.76392275e-02, 1.31243810e-01, -1.52568622e-02,
          -7.61042163e-02, 4.06363569e-02, 5.06480150e-02,
          4.10962217e-02, -5.88965602e-02, 1.96746230e-01,
          4.52576429e-02, 4.66924571e-02, -1.06762638e-02,
          -3.43849659e-02, 6.34059384e-02, -4.11214046e-02,
          -3.55122685e-02, -8.87203366e-02, -8.98068845e-02,
          -2.06957713e-01, -1.32093236e-01, 7.94065818e-02,
          2.59662122e-01, 1.20978616e-01, 2.90424936e-02, 3.28157619e-02,
          -1.50247261e-01, 1.16404727e-01, -2.87105758e-02,
          -4.75273840e-02, 3.04892734e-02, -2.19323691e-02,
          5.65629639e-03, -4.03535776e-02, 1.04000948e-01,
          -1.32912517e-01, -2.26035744e-01, -1.44100130e-01,
          -1.28900781e-01, 1.03588283e-01, 6.00453690e-02,
          -1.17927834e-01, 5.57117816e-03, -7.18955770e-02,
          -1.84081540e-01, -3.61841500e-01, -8.62295851e-02,
          -9.64614451e-02, 2.10468709e-01, 1.21609986e-01,
          9.80674326e-02, 3.77706885e-02, -2.03192816e-03,
          7.96010941e-02, 1.40048280e-01, -2.75977880e-01,
          -6.34201840e-02, -3.28798220e-02, 1.83252499e-01,
          8.13207403e-02, -8.70189965e-02, -1.70585662e-02,
          -7.69559741e-02, 3.93016636e-02, -1.96024328e-01,
          -2.00469717e-01, 8.65305029e-03, 1.54417142e-01,
          1.86083894e-02, -3.65489870e-02, -6.15121573e-02,
          6.68800669e-03, -1.50371373e-01, 2.26044223e-01,
          1.60779417e-01, 4.87549827e-02, 1.37539469e-02, 7.93210343e-02,
          9.34728086e-02, 1.06258430e-01, -4.66489121e-02,
          2.33786106e-01, -2.19914801e-02, 6.47058934e-02,
          -1.41011048e-02, 6.68208227e-02, 1.28466323e-01,
          3.36952545e-02, 1.41939037e-02, -4.41062786e-02,
          -1.28045022e-01, 4.39327732e-02, -1.16039038e-01,
          -1.84025466e-02, -1.26886040e-01, -1.08534358e-01,
          -5.80647364e-02, -1.71160642e-02, -7.86026269e-02,
          -9.70150903e-03, 4.34342809e-02, -8.06333125e-02,
          -2.26407815e-02, -1.76169816e-02, 4.20849994e-02,
          -9.60258618e-02, 6.27552569e-02, -1.25952169e-01,
          -2.06355199e-01, -1.06187806e-01, -1.97437536e-02,
          5.78527302e-02, 7.04713613e-02, -1.13305494e-01,
          1.63979158e-02, -9.13508888e-03, -8.07344243e-02,
          -1.67295963e-01, 5.82164265e-02, 1.12391517e-01,
          2.58126259e-01, 2.23676175e-01, 6.61609322e-02, 2.48810321e-01,
          1.85293180e-03, -2.47164473e-01, -4.31431174e-01,
          -1.47815183e-01, -1.83823943e-01, -6.52377456e-02,
          1.65555418e-01, 1.15817092e-01, -7.97009021e-02,
          -3.65828583e-03, -2.03936566e-02, 1.09014742e-01,
          -1.23293987e-02, -1.03940777e-01, 3.91215868e-02,
          1.40588880e-01, 1.07744358e-01, 2.12270394e-02, 1.64226349e-03,
          4.40425463e-02, -1.85388513e-02, -1.36875302e-01,
          -1.76480696e-01, 1.45784542e-01, -2.66722143e-02,
          -3.70974064e-01, -1.64710619e-02, -3.77089120e-02,
          8.71512592e-02, -4.85288762e-02, 1.44716427e-01,
          2.11745054e-02, -3.38295288e-02, 1.28695682e-01,
          8.21176469e-02, 1.44714043e-02, 4.07298729e-02,
          -1.71141904e-02, 5.32976016e-02, 1.77419603e-01,
          -9.37292352e-02, 4.78692055e-02, -2.35894211e-02,
          -3.87891987e-03, -4.56163920e-02, 3.69986221e-02,
          -2.96916682e-02, 1.32360131e-01, -2.43390992e-01,
          -1.99350119e-01, 4.24095541e-02, 1.96111739e-01,
          -6.27685785e-02, -1.27886897e-02, -2.42625941e-02,
          2.30043521e-03, -2.15970650e-01, -8.08607563e-02,
          3.75563413e-01, 1.32091969e-01, 7.60422274e-02,
          -1.98149249e-01, 9.33848843e-02, 2.89633721e-02,
          -4.56065387e-02, -1.34608313e-01, -1.39820457e-01,
          -2.68293202e-01, 6.34505451e-02, -8.17280561e-02,
          -1.81978345e-01, 2.33496483e-02, 9.48238075e-02,
          -2.90863402e-02, -2.10484907e-01, -6.41599372e-02,
          -3.52619588e-01, 9.59753096e-02, -2.01005582e-02,
          4.72858399e-02, 7.09045455e-02, 2.04997193e-02,
          -7.09910616e-02, -9.51645449e-02, -1.50223434e-01,
          -5.15781492e-02, -5.68247363e-02, 1.26932949e-01,
          -1.49694756e-01, -3.21520157e-02, 4.20068502e-02,
          -6.36491030e-02, -1.63837463e-01, -3.80875990e-02,
          1.41949756e-02, 2.29380988e-02, -8.06105956e-02,
          -6.99327961e-02, 1.17361732e-02, -5.75698651e-02,
          -2.21810453e-02, -7.45295286e-02, 1.66626751e-01,
          -1.00469768e-01, 5.01245782e-02, -2.11778477e-01,
          4.91093099e-02, -1.37844965e-01, 2.02151891e-02,
          -1.31235167e-01, -2.56257225e-02, 2.15394661e-01,
          3.46365804e-03, 2.36919802e-03, -1.07047729e-01,
          1.78082764e-01, 1.88497230e-01, 2.60228395e-01, 1.40492201e-01,
          -1.88905090e-01, 1.18050970e-01, 3.10959816e-02,
          -5.87096959e-02, -7.36365840e-02, 7.71858916e-02,
          -6.67898916e-03, 1.42957538e-01, 1.65474229e-02,
          2.40071435e-02, 2.78646331e-02, 7.06004873e-02, 1.33082867e-01,
          -2.74433233e-02, 1.43162116e-01, 2.81338785e-02,
          1.42177582e-01, 7.53160715e-02, 1.38716668e-01,
          -7.56322071e-02, -3.65809321e-01, 9.33104455e-02,
          -9.44956094e-02, -2.65748203e-01, -4.25877646e-02,
          9.09495205e-02, -4.39141393e-02, -1.31654486e-01,
          -2.20047146e-01, -2.62992293e-01, 7.79250562e-02,
          -2.15091743e-02, 6.63163215e-02, 4.79119085e-02,
          3.15035358e-02, -4.51413132e-02, -6.59382790e-02,
          1.77672636e-02, 1.35872096e-01, 3.28703970e-02, 6.61277473e-02,
          1.04765318e-01, 8.80556554e-02, -7.75411129e-02,
          -4.74150442e-02, -1.44798025e-01, -1.69796467e-01,
          4.35255468e-03, 1.28924707e-02, -4.39186469e-02,
          -2.23543182e-01, -5.13824746e-02, -7.70299509e-02,
          -6.72030225e-02, 1.83704104e-02, -6.83148950e-02,
          -1.77167699e-01, -2.19529830e-02, -1.03116676e-01,
          1.09039262e-01, -9.56427753e-02, 1.53525211e-02,
          -8.00477713e-02, 2.23579258e-02, -1.78594701e-02,
          -2.00241283e-01, 1.27316281e-01, -1.99713763e-02,
          2.47869678e-02, 1.28811583e-01, 1.06591061e-01,
          -5.41107692e-02, 2.87927706e-02, -8.24027210e-02,
          -3.09254061e-02, -4.66670133e-02, 3.00801136e-02,
          4.54004370e-02, 4.08741497e-02, 1.78576499e-01,
          -4.37174179e-02, -6.02194993e-03, -2.14879528e-01,
          4.65258490e-03, 7.34852552e-02, 5.45204710e-03, 2.30689242e-01,
          4.84623164e-02, 1.33189812e-01, 5.28552346e-02, 1.13950923e-01,
          1.36808366e-01, -9.83540863e-02, 7.13700289e-03,
          2.42527634e-01, 7.27484524e-02, 1.80356517e-01, 6.29743487e-02,
          1.19800426e-01, 5.15924320e-02, -2.96775907e-01,
          -3.23437512e-01, 6.65521100e-02, -3.68052721e-02,
          -1.57960355e-01, -5.42933531e-02, -5.79555333e-03,
          -4.16902117e-02, -8.92969072e-02, -1.27533123e-01,
          5.21364287e-02, 1.44899571e-02, 3.39705795e-02, 8.60959888e-02,
          8.38872194e-02, -8.89929384e-02, -1.97247881e-02,
          -1.14046566e-01, -6.43116906e-02, 1.17864713e-01,
          -7.18493685e-02, 1.30542919e-01, 6.86107948e-02,
          7.35643283e-02, 5.27970307e-03, 2.08446610e-04,
          -2.88923591e-01, -1.44930720e-01, -2.98983812e-01,
          -8.80729109e-02, -1.09732457e-01, 4.06444166e-03,
          -1.53987393e-01, -1.33404210e-02, -9.48415995e-02,
          -7.18591809e-02, -9.21588019e-02, -2.40383878e-01,
          7.30296522e-02, -1.27723836e-03, -1.46162957e-02,
          1.10130258e-01, 7.19605833e-02, -6.46700487e-02,
          6.67852163e-02, -5.41500933e-02, 8.10840726e-03,
          1.22009479e-01, 1.47869825e-01, -1.01606781e-02,
          -6.74825162e-02, 2.38265842e-03, 1.48254521e-02,
          6.05212152e-02, -3.90894473e-01, -8.08389932e-02,
          8.37033242e-02, 9.58207413e-04, 2.33433500e-01, 4.93966229e-02,
          1.77754134e-01, 1.87475067e-02, 1.95320472e-02, 6.33156896e-02,
          -1.28718928e-01, 4.14284598e-03, 2.30518401e-01,
          2.54807696e-02, 1.87085032e-01, 3.68197486e-02, 1.09025121e-01,
          9.41001251e-02, 6.90012127e-02, 1.59190863e-01, 1.00785181e-01,
          1.22629941e-01, -7.96162710e-02, 2.44591013e-02,
          -1.49769112e-02, 1.88686587e-02, 9.38950926e-02,
          -1.88171670e-01, -1.37403667e-01, -1.95768513e-02,
          -9.40793566e-03, 8.18510056e-02, 8.81964341e-02,
          -9.10974070e-02, 2.24420317e-02, -1.12749197e-01,
          -1.00830711e-01, 7.38724023e-02, -1.36206090e-01,
          9.19535831e-02, 4.28708445e-04, 3.08931898e-02,
          -4.86364365e-02, 6.09014789e-03, -2.09572792e-01,
          -7.74025619e-02, 1.99180446e-03, -2.13104546e-01,
          -7.06359446e-02, -5.10656685e-02, -8.60105455e-02,
          -3.61209959e-02, -1.22477762e-01, -2.89528728e-01,
          -6.64900616e-02, -3.48252356e-01, -1.53526813e-02,
          -2.87311226e-02, -5.76828904e-02, 5.92325740e-02,
          4.17059101e-02, -4.55002710e-02, 4.91979197e-02,
          -1.53633077e-02, -6.71797022e-02, 4.86812443e-02,
          9.92813259e-02, -5.04455529e-02, -1.22455858e-01,
          -4.21869010e-03, -1.80579741e-02, 1.55569226e-01,
          2.11975977e-01, 9.11327675e-02, -1.39837146e-01,
          -9.58619341e-02, -1.37104169e-01, 1.50848255e-02,
          1.80081680e-01, 4.92210351e-02, 1.62163347e-01, 5.31641357e-02,
          -1.21026762e-01, -3.48398946e-02, 2.54548311e-01,
          3.92160453e-02, 1.98061615e-01, 5.06627187e-02, 1.25219971e-01,
          5.56184947e-02, 3.91033590e-02, 1.08208209e-01, 2.43228078e-02,
          1.17680226e-02, -6.94049820e-02, -3.20553891e-02,
          -3.16237658e-02, -4.34177145e-02, 5.98089248e-02,
          6.26095608e-02, -9.77741629e-02, -9.13180970e-03,
          8.37369114e-02, -2.68366069e-01, 7.78064888e-04,
          7.62829138e-03, -1.40750617e-01, 1.77549690e-01,
          -1.03177100e-01, 7.33068511e-02, -7.42273480e-02,
          1.19486496e-01, 1.18791487e-03, 5.71960059e-04,
          -2.44488362e-02, 2.35589966e-02, -1.51545942e-01,
          -1.61325902e-01, -5.05793095e-02, -1.91735014e-01,
          -6.61211610e-02, -8.60046297e-02, -1.11765966e-01,
          -5.85368574e-02, -6.95288926e-02, -2.33520612e-01,
          -1.72012039e-02, -1.04724504e-01, 1.55204028e-01,
          7.56911337e-02, 4.92221974e-02, 1.50766689e-02,
          -4.35507260e-02, 8.51072297e-02, 7.31821209e-02,
          2.52405256e-02, -8.03928897e-02, 1.53757138e-02,
          7.08433166e-02, -1.14011057e-01, -1.57181054e-01,
          -8.53495672e-03, -2.29476914e-02, 1.55970782e-01,
          4.35748287e-02, 1.27935931e-01, -1.93511039e-01,
          -1.46654844e-01, -1.44674689e-01, -4.98873219e-02,
          1.72085643e-01, 4.68537435e-02, 1.77228495e-01, 7.89692774e-02,
          9.36397836e-02, -2.87292786e-02, -2.01055929e-01,
          -5.91965243e-02, -3.16286758e-02, -2.80848593e-02,
          -1.52708560e-01, 8.38658139e-02, 5.82257695e-02,
          8.56924728e-02, 7.86279142e-02, -3.93311717e-02,
          -8.30224529e-02, -2.51697693e-02, -3.14972252e-02,
          -3.83046679e-02, 6.27744496e-02, 7.94590041e-02,
          -4.97524291e-02, -6.77858144e-02, 3.80510613e-02,
          -2.85264313e-01, 2.44268589e-02, 5.12578432e-03,
          -1.41457126e-01, 9.16865170e-02, 2.19510943e-01,
          -1.83403434e-03, 1.69107631e-01, 9.78988484e-02,
          -1.50685906e-01, 1.04756489e-01, -2.84602363e-02,
          3.71235907e-02, 5.11865988e-02, -1.70064390e-01,
          2.21800245e-02, -1.52847379e-01, 2.70199664e-02,
          -1.22806892e-01, -1.05464719e-01, -3.74061354e-02,
          -5.97457364e-02, -2.60004222e-01, -1.77063495e-01,
          -1.42320916e-01, 1.48942262e-01, 4.40839119e-02,
          7.49945035e-03, 3.95191554e-03, -6.17389530e-02,
          2.27105562e-02, 5.86995967e-02, -1.84969082e-01,
          5.43703558e-03, -4.27420065e-02, 1.81844845e-01,
          1.28077224e-01, -1.13526478e-01, -1.00886924e-02,
          -1.14412732e-01, 5.00225537e-02, -1.02918847e-02,
          1.20447740e-01, -1.79029658e-01, -8.34558457e-02,
          -8.14811513e-02, -1.35694360e-02, 1.73159868e-01,
          1.57208778e-02, 7.69136921e-02, -5.06327767e-03,
          6.84807599e-02, -3.52168605e-02, -1.51097178e-01,
          -6.75943494e-02, 1.28362910e-03, -1.40689418e-03,
          -1.33494735e-01, 8.19891840e-02, -3.54563259e-02,
          -1.36156054e-03, -6.71406686e-02, -5.83947226e-02,
          9.28024873e-02, -8.45237821e-02, -8.16049352e-02,
          -1.51325226e-01, -1.46452427e-01, 1.10599123e-01,
          -2.46948116e-02, -8.09758157e-02, 1.29426733e-01,
          -2.06109300e-01, 4.65654209e-02, 3.69266607e-02,
          -1.75291583e-01, 3.50382589e-02, 2.14196980e-01,
          2.86732279e-02, 1.21651836e-01, 1.55384004e-01, 1.69993546e-02,
          1.22210532e-01, 1.14679337e-02, 1.14888489e-01, 1.33361280e-01,
          1.03207231e-02, 2.21291825e-01, 1.74697623e-01,
          -6.10932671e-02, 2.83234827e-02, 2.03709602e-01,
          3.73830483e-03, -1.22310728e-01, -4.01666641e-01,
          -1.54679254e-01, -2.00957492e-01, 1.91286117e-01,
          4.60961983e-02, 3.03014163e-02, 1.50136603e-02,
          -1.82309207e-02, 7.95216560e-02, 1.03520811e-01,
          -2.41550699e-01, -5.82174473e-02, -3.21217515e-02,
          2.18238592e-01, 4.00242321e-02, -1.09663300e-01,
          -1.49871474e-02, -7.99325556e-02, -4.62289527e-03,
          -2.35645249e-01, -2.04825208e-01, -6.54877871e-02,
          1.45267278e-01, -8.61746147e-02, 2.65868120e-02,
          -3.26202363e-02, 1.70739111e-03, -2.37806574e-01,
